<?xml version="1.0" encoding="UTF-8" standalone="yes"?>
<PMML xmlns="http://www.dmg.org/PMML-4_4" xmlns:data="http://jpmml.org/jpmml-model/InlineTable" version="4.4">
	<Header>
		<Application name="SkLearn2PMML package" version="0.107.0"/>
		<Timestamp>2024-04-26T13:38:08Z</Timestamp>
	</Header>
	<MiningBuildTask>
		<Extension name="repr">PMMLPipeline(steps=[('random_forest', RandomForestClassifier(max_depth=4, min_samples_leaf=2, n_estimators=200))])</Extension>
	</MiningBuildTask>
	<DataDictionary>
		<DataField name="y" optype="categorical" dataType="double">
			<Value value="0.0"/>
			<Value value="1.0"/>
			<Value value="2.0"/>
			<Value value="3.0"/>
			<Value value="4.0"/>
			<Value value="5.0"/>
			<Value value="6.0"/>
			<Value value="7.0"/>
			<Value value="8.0"/>
			<Value value="9.0"/>
		</DataField>
		<DataField name="x1" optype="continuous" dataType="float"/>
		<DataField name="x3" optype="continuous" dataType="float"/>
		<DataField name="x4" optype="continuous" dataType="float"/>
		<DataField name="x5" optype="continuous" dataType="float"/>
		<DataField name="x6" optype="continuous" dataType="float"/>
		<DataField name="x7" optype="continuous" dataType="float"/>
		<DataField name="x8" optype="continuous" dataType="float"/>
		<DataField name="x9" optype="continuous" dataType="float"/>
		<DataField name="x10" optype="continuous" dataType="float"/>
		<DataField name="x11" optype="continuous" dataType="float"/>
		<DataField name="x12" optype="continuous" dataType="float"/>
		<DataField name="x13" optype="continuous" dataType="float"/>
	</DataDictionary>
	<MiningModel functionName="classification" algorithmName="sklearn.ensemble._forest.RandomForestClassifier">
		<MiningSchema>
			<MiningField name="y" usageType="target"/>
			<MiningField name="x13"/>
			<MiningField name="x10"/>
			<MiningField name="x12"/>
			<MiningField name="x7"/>
			<MiningField name="x8"/>
			<MiningField name="x9"/>
			<MiningField name="x1"/>
			<MiningField name="x5"/>
			<MiningField name="x11"/>
			<MiningField name="x3"/>
			<MiningField name="x6"/>
			<MiningField name="x4"/>
		</MiningSchema>
		<Output>
			<OutputField name="probability(0.0)" optype="continuous" dataType="double" feature="probability" value="0.0"/>
			<OutputField name="probability(1.0)" optype="continuous" dataType="double" feature="probability" value="1.0"/>
			<OutputField name="probability(2.0)" optype="continuous" dataType="double" feature="probability" value="2.0"/>
			<OutputField name="probability(3.0)" optype="continuous" dataType="double" feature="probability" value="3.0"/>
			<OutputField name="probability(4.0)" optype="continuous" dataType="double" feature="probability" value="4.0"/>
			<OutputField name="probability(5.0)" optype="continuous" dataType="double" feature="probability" value="5.0"/>
			<OutputField name="probability(6.0)" optype="continuous" dataType="double" feature="probability" value="6.0"/>
			<OutputField name="probability(7.0)" optype="continuous" dataType="double" feature="probability" value="7.0"/>
			<OutputField name="probability(8.0)" optype="continuous" dataType="double" feature="probability" value="8.0"/>
			<OutputField name="probability(9.0)" optype="continuous" dataType="double" feature="probability" value="9.0"/>
		</Output>
		<LocalTransformations>
			<DerivedField name="double(x13)" optype="continuous" dataType="double">
				<FieldRef field="x13"/>
			</DerivedField>
			<DerivedField name="double(x10)" optype="continuous" dataType="double">
				<FieldRef field="x10"/>
			</DerivedField>
			<DerivedField name="double(x12)" optype="continuous" dataType="double">
				<FieldRef field="x12"/>
			</DerivedField>
			<DerivedField name="double(x7)" optype="continuous" dataType="double">
				<FieldRef field="x7"/>
			</DerivedField>
			<DerivedField name="double(x8)" optype="continuous" dataType="double">
				<FieldRef field="x8"/>
			</DerivedField>
			<DerivedField name="double(x9)" optype="continuous" dataType="double">
				<FieldRef field="x9"/>
			</DerivedField>
			<DerivedField name="double(x1)" optype="continuous" dataType="double">
				<FieldRef field="x1"/>
			</DerivedField>
			<DerivedField name="double(x5)" optype="continuous" dataType="double">
				<FieldRef field="x5"/>
			</DerivedField>
			<DerivedField name="double(x11)" optype="continuous" dataType="double">
				<FieldRef field="x11"/>
			</DerivedField>
			<DerivedField name="double(x3)" optype="continuous" dataType="double">
				<FieldRef field="x3"/>
			</DerivedField>
			<DerivedField name="double(x6)" optype="continuous" dataType="double">
				<FieldRef field="x6"/>
			</DerivedField>
			<DerivedField name="double(x4)" optype="continuous" dataType="double">
				<FieldRef field="x4"/>
			</DerivedField>
		</LocalTransformations>
		<Segmentation multipleModelMethod="average" missingPredictionTreatment="returnMissing">
			<Segment id="1">
				<True/>
				<TreeModel functionName="classification" missingValueStrategy="nullPrediction">
					<MiningSchema>
						<MiningField name="double(x13)"/>
						<MiningField name="double(x10)"/>
						<MiningField name="double(x12)"/>
						<MiningField name="double(x7)"/>
						<MiningField name="double(x8)"/>
						<MiningField name="double(x9)"/>
						<MiningField name="double(x1)"/>
					</MiningSchema>
					<Node>
						<True/>
						<Node>
							<SimplePredicate field="double(x13)" operator="lessOrEqual" value="0.27165892720222473"/>
							<Node>
								<SimplePredicate field="double(x10)" operator="lessOrEqual" value="0.006387711502611637"/>
								<Node score="0.0" recordCount="127">
									<SimplePredicate field="double(x12)" operator="lessOrEqual" value="0.2506280839443207"/>
									<ScoreDistribution value="0.0" recordCount="127"/>
									<ScoreDistribution value="1.0" recordCount="0"/>
									<ScoreDistribution value="2.0" recordCount="0"/>
									<ScoreDistribution value="3.0" recordCount="0"/>
									<ScoreDistribution value="4.0" recordCount="0"/>
									<ScoreDistribution value="5.0" recordCount="0"/>
									<ScoreDistribution value="6.0" recordCount="0"/>
									<ScoreDistribution value="7.0" recordCount="0"/>
									<ScoreDistribution value="8.0" recordCount="0"/>
									<ScoreDistribution value="9.0" recordCount="0"/>
								</Node>
								<Node score="5.0" recordCount="4">
									<SimplePredicate field="double(x7)" operator="lessOrEqual" value="0.4112468808889389"/>
									<ScoreDistribution value="0.0" recordCount="0"/>
									<ScoreDistribution value="1.0" recordCount="0"/>
									<ScoreDistribution value="2.0" recordCount="0"/>
									<ScoreDistribution value="3.0" recordCount="0"/>
									<ScoreDistribution value="4.0" recordCount="0"/>
									<ScoreDistribution value="5.0" recordCount="4"/>
									<ScoreDistribution value="6.0" recordCount="0"/>
									<ScoreDistribution value="7.0" recordCount="0"/>
									<ScoreDistribution value="8.0" recordCount="0"/>
									<ScoreDistribution value="9.0" recordCount="0"/>
								</Node>
								<Node score="0.0" recordCount="16">
									<True/>
									<ScoreDistribution value="0.0" recordCount="16"/>
									<ScoreDistribution value="1.0" recordCount="0"/>
									<ScoreDistribution value="2.0" recordCount="0"/>
									<ScoreDistribution value="3.0" recordCount="0"/>
									<ScoreDistribution value="4.0" recordCount="0"/>
									<ScoreDistribution value="5.0" recordCount="0"/>
									<ScoreDistribution value="6.0" recordCount="0"/>
									<ScoreDistribution value="7.0" recordCount="0"/>
									<ScoreDistribution value="8.0" recordCount="0"/>
									<ScoreDistribution value="9.0" recordCount="0"/>
								</Node>
							</Node>
							<Node>
								<SimplePredicate field="double(x13)" operator="lessOrEqual" value="0.17004331201314926"/>
								<Node score="2.0" recordCount="404">
									<SimplePredicate field="double(x8)" operator="lessOrEqual" value="0.11385436356067657"/>
									<ScoreDistribution value="0.0" recordCount="0"/>
									<ScoreDistribution value="1.0" recordCount="0"/>
									<ScoreDistribution value="2.0" recordCount="153"/>
									<ScoreDistribution value="3.0" recordCount="0"/>
									<ScoreDistribution value="4.0" recordCount="1"/>
									<ScoreDistribution value="5.0" recordCount="114"/>
									<ScoreDistribution value="6.0" recordCount="7"/>
									<ScoreDistribution value="7.0" recordCount="0"/>
									<ScoreDistribution value="8.0" recordCount="129"/>
									<ScoreDistribution value="9.0" recordCount="0"/>
								</Node>
								<Node score="6.0" recordCount="169">
									<True/>
									<ScoreDistribution value="0.0" recordCount="0"/>
									<ScoreDistribution value="1.0" recordCount="0"/>
									<ScoreDistribution value="2.0" recordCount="0"/>
									<ScoreDistribution value="3.0" recordCount="0"/>
									<ScoreDistribution value="4.0" recordCount="3"/>
									<ScoreDistribution value="5.0" recordCount="0"/>
									<ScoreDistribution value="6.0" recordCount="160"/>
									<ScoreDistribution value="7.0" recordCount="0"/>
									<ScoreDistribution value="8.0" recordCount="6"/>
									<ScoreDistribution value="9.0" recordCount="0"/>
								</Node>
							</Node>
							<Node score="5.0" recordCount="34">
								<SimplePredicate field="double(x9)" operator="lessOrEqual" value="0.013998291455209255"/>
								<ScoreDistribution value="0.0" recordCount="0"/>
								<ScoreDistribution value="1.0" recordCount="0"/>
								<ScoreDistribution value="2.0" recordCount="0"/>
								<ScoreDistribution value="3.0" recordCount="0"/>
								<ScoreDistribution value="4.0" recordCount="0"/>
								<ScoreDistribution value="5.0" recordCount="34"/>
								<ScoreDistribution value="6.0" recordCount="0"/>
								<ScoreDistribution value="7.0" recordCount="0"/>
								<ScoreDistribution value="8.0" recordCount="0"/>
								<ScoreDistribution value="9.0" recordCount="0"/>
							</Node>
							<Node score="4.0" recordCount="192">
								<True/>
								<ScoreDistribution value="0.0" recordCount="0"/>
								<ScoreDistribution value="1.0" recordCount="0"/>
								<ScoreDistribution value="2.0" recordCount="0"/>
								<ScoreDistribution value="3.0" recordCount="0"/>
								<ScoreDistribution value="4.0" recordCount="181"/>
								<ScoreDistribution value="5.0" recordCount="0"/>
								<ScoreDistribution value="6.0" recordCount="0"/>
								<ScoreDistribution value="7.0" recordCount="0"/>
								<ScoreDistribution value="8.0" recordCount="11"/>
								<ScoreDistribution value="9.0" recordCount="0"/>
							</Node>
						</Node>
						<Node>
							<SimplePredicate field="double(x8)" operator="lessOrEqual" value="0.08143570646643639"/>
							<Node>
								<SimplePredicate field="double(x1)" operator="lessOrEqual" value="10.08423137664795"/>
								<Node score="7.0" recordCount="98">
									<SimplePredicate field="double(x9)" operator="lessOrEqual" value="0.015794595703482628"/>
									<ScoreDistribution value="0.0" recordCount="0"/>
									<ScoreDistribution value="1.0" recordCount="0"/>
									<ScoreDistribution value="2.0" recordCount="0"/>
									<ScoreDistribution value="3.0" recordCount="0"/>
									<ScoreDistribution value="4.0" recordCount="0"/>
									<ScoreDistribution value="5.0" recordCount="0"/>
									<ScoreDistribution value="6.0" recordCount="0"/>
									<ScoreDistribution value="7.0" recordCount="96"/>
									<ScoreDistribution value="8.0" recordCount="0"/>
									<ScoreDistribution value="9.0" recordCount="2"/>
								</Node>
								<Node score="3.0" recordCount="243">
									<True/>
									<ScoreDistribution value="0.0" recordCount="0"/>
									<ScoreDistribution value="1.0" recordCount="0"/>
									<ScoreDistribution value="2.0" recordCount="0"/>
									<ScoreDistribution value="3.0" recordCount="184"/>
									<ScoreDistribution value="4.0" recordCount="0"/>
									<ScoreDistribution value="5.0" recordCount="0"/>
									<ScoreDistribution value="6.0" recordCount="0"/>
									<ScoreDistribution value="7.0" recordCount="55"/>
									<ScoreDistribution value="8.0" recordCount="4"/>
									<ScoreDistribution value="9.0" recordCount="0"/>
								</Node>
							</Node>
							<Node score="9.0" recordCount="153">
								<True/>
								<ScoreDistribution value="0.0" recordCount="0"/>
								<ScoreDistribution value="1.0" recordCount="0"/>
								<ScoreDistribution value="2.0" recordCount="0"/>
								<ScoreDistribution value="3.0" recordCount="0"/>
								<ScoreDistribution value="4.0" recordCount="0"/>
								<ScoreDistribution value="5.0" recordCount="0"/>
								<ScoreDistribution value="6.0" recordCount="0"/>
								<ScoreDistribution value="7.0" recordCount="0"/>
								<ScoreDistribution value="8.0" recordCount="0"/>
								<ScoreDistribution value="9.0" recordCount="153"/>
							</Node>
						</Node>
						<Node score="1.0" recordCount="191">
							<True/>
							<ScoreDistribution value="0.0" recordCount="0"/>
							<ScoreDistribution value="1.0" recordCount="191"/>
							<ScoreDistribution value="2.0" recordCount="0"/>
							<ScoreDistribution value="3.0" recordCount="0"/>
							<ScoreDistribution value="4.0" recordCount="0"/>
							<ScoreDistribution value="5.0" recordCount="0"/>
							<ScoreDistribution value="6.0" recordCount="0"/>
							<ScoreDistribution value="7.0" recordCount="0"/>
							<ScoreDistribution value="8.0" recordCount="0"/>
							<ScoreDistribution value="9.0" recordCount="0"/>
						</Node>
					</Node>
				</TreeModel>
			</Segment>
			<Segment id="2">
				<True/>
				<TreeModel functionName="classification" missingValueStrategy="nullPrediction">
					<MiningSchema>
						<MiningField name="double(x13)"/>
						<MiningField name="double(x10)"/>
						<MiningField name="double(x5)"/>
						<MiningField name="double(x11)"/>
					</MiningSchema>
					<Node>
						<True/>
						<Node>
							<SimplePredicate field="double(x5)" operator="lessOrEqual" value="10.555585384368896"/>
							<Node>
								<SimplePredicate field="double(x10)" operator="lessOrEqual" value="0.3577752262353897"/>
								<Node>
									<SimplePredicate field="double(x13)" operator="lessOrEqual" value="0.39742954075336456"/>
									<Node score="8.0" recordCount="779">
										<SimplePredicate field="double(x13)" operator="lessOrEqual" value="0.27038273215293884"/>
										<ScoreDistribution value="0.0" recordCount="158"/>
										<ScoreDistribution value="1.0" recordCount="0"/>
										<ScoreDistribution value="2.0" recordCount="136"/>
										<ScoreDistribution value="3.0" recordCount="0"/>
										<ScoreDistribution value="4.0" recordCount="1"/>
										<ScoreDistribution value="5.0" recordCount="157"/>
										<ScoreDistribution value="6.0" recordCount="156"/>
										<ScoreDistribution value="7.0" recordCount="0"/>
										<ScoreDistribution value="8.0" recordCount="171"/>
										<ScoreDistribution value="9.0" recordCount="0"/>
									</Node>
									<Node score="1.0" recordCount="176">
										<True/>
										<ScoreDistribution value="0.0" recordCount="0"/>
										<ScoreDistribution value="1.0" recordCount="169"/>
										<ScoreDistribution value="2.0" recordCount="0"/>
										<ScoreDistribution value="3.0" recordCount="0"/>
										<ScoreDistribution value="4.0" recordCount="0"/>
										<ScoreDistribution value="5.0" recordCount="4"/>
										<ScoreDistribution value="6.0" recordCount="0"/>
										<ScoreDistribution value="7.0" recordCount="0"/>
										<ScoreDistribution value="8.0" recordCount="3"/>
										<ScoreDistribution value="9.0" recordCount="0"/>
									</Node>
								</Node>
								<Node score="7.0" recordCount="168">
									<True/>
									<ScoreDistribution value="0.0" recordCount="0"/>
									<ScoreDistribution value="1.0" recordCount="0"/>
									<ScoreDistribution value="2.0" recordCount="0"/>
									<ScoreDistribution value="3.0" recordCount="0"/>
									<ScoreDistribution value="4.0" recordCount="0"/>
									<ScoreDistribution value="5.0" recordCount="0"/>
									<ScoreDistribution value="6.0" recordCount="0"/>
									<ScoreDistribution value="7.0" recordCount="168"/>
									<ScoreDistribution value="8.0" recordCount="0"/>
									<ScoreDistribution value="9.0" recordCount="0"/>
								</Node>
							</Node>
							<Node score="3.0" recordCount="174">
								<SimplePredicate field="double(x11)" operator="lessOrEqual" value="0.18281151354312897"/>
								<ScoreDistribution value="0.0" recordCount="0"/>
								<ScoreDistribution value="1.0" recordCount="0"/>
								<ScoreDistribution value="2.0" recordCount="0"/>
								<ScoreDistribution value="3.0" recordCount="174"/>
								<ScoreDistribution value="4.0" recordCount="0"/>
								<ScoreDistribution value="5.0" recordCount="0"/>
								<ScoreDistribution value="6.0" recordCount="0"/>
								<ScoreDistribution value="7.0" recordCount="0"/>
								<ScoreDistribution value="8.0" recordCount="0"/>
								<ScoreDistribution value="9.0" recordCount="0"/>
							</Node>
							<Node score="7.0" recordCount="3">
								<True/>
								<ScoreDistribution value="0.0" recordCount="0"/>
								<ScoreDistribution value="1.0" recordCount="0"/>
								<ScoreDistribution value="2.0" recordCount="0"/>
								<ScoreDistribution value="3.0" recordCount="1"/>
								<ScoreDistribution value="4.0" recordCount="0"/>
								<ScoreDistribution value="5.0" recordCount="0"/>
								<ScoreDistribution value="6.0" recordCount="0"/>
								<ScoreDistribution value="7.0" recordCount="2"/>
								<ScoreDistribution value="8.0" recordCount="0"/>
								<ScoreDistribution value="9.0" recordCount="0"/>
							</Node>
						</Node>
						<Node>
							<SimplePredicate field="double(x10)" operator="lessOrEqual" value="0.13860942050814629"/>
							<Node score="5.0" recordCount="4">
								<SimplePredicate field="double(x10)" operator="lessOrEqual" value="0.022169371135532856"/>
								<ScoreDistribution value="0.0" recordCount="0"/>
								<ScoreDistribution value="1.0" recordCount="0"/>
								<ScoreDistribution value="2.0" recordCount="0"/>
								<ScoreDistribution value="3.0" recordCount="0"/>
								<ScoreDistribution value="4.0" recordCount="0"/>
								<ScoreDistribution value="5.0" recordCount="4"/>
								<ScoreDistribution value="6.0" recordCount="0"/>
								<ScoreDistribution value="7.0" recordCount="0"/>
								<ScoreDistribution value="8.0" recordCount="0"/>
								<ScoreDistribution value="9.0" recordCount="0"/>
							</Node>
							<Node score="4.0" recordCount="164">
								<SimplePredicate field="double(x11)" operator="lessOrEqual" value="0.5007693767547607"/>
								<ScoreDistribution value="0.0" recordCount="0"/>
								<ScoreDistribution value="1.0" recordCount="0"/>
								<ScoreDistribution value="2.0" recordCount="0"/>
								<ScoreDistribution value="3.0" recordCount="0"/>
								<ScoreDistribution value="4.0" recordCount="157"/>
								<ScoreDistribution value="5.0" recordCount="7"/>
								<ScoreDistribution value="6.0" recordCount="0"/>
								<ScoreDistribution value="7.0" recordCount="0"/>
								<ScoreDistribution value="8.0" recordCount="0"/>
								<ScoreDistribution value="9.0" recordCount="0"/>
							</Node>
							<Node score="5.0" recordCount="2">
								<True/>
								<ScoreDistribution value="0.0" recordCount="0"/>
								<ScoreDistribution value="1.0" recordCount="0"/>
								<ScoreDistribution value="2.0" recordCount="0"/>
								<ScoreDistribution value="3.0" recordCount="0"/>
								<ScoreDistribution value="4.0" recordCount="0"/>
								<ScoreDistribution value="5.0" recordCount="2"/>
								<ScoreDistribution value="6.0" recordCount="0"/>
								<ScoreDistribution value="7.0" recordCount="0"/>
								<ScoreDistribution value="8.0" recordCount="0"/>
								<ScoreDistribution value="9.0" recordCount="0"/>
							</Node>
						</Node>
						<Node score="7.0" recordCount="4">
							<SimplePredicate field="double(x5)" operator="lessOrEqual" value="11.890564918518066"/>
							<ScoreDistribution value="0.0" recordCount="0"/>
							<ScoreDistribution value="1.0" recordCount="0"/>
							<ScoreDistribution value="2.0" recordCount="0"/>
							<ScoreDistribution value="3.0" recordCount="0"/>
							<ScoreDistribution value="4.0" recordCount="0"/>
							<ScoreDistribution value="5.0" recordCount="0"/>
							<ScoreDistribution value="6.0" recordCount="0"/>
							<ScoreDistribution value="7.0" recordCount="2"/>
							<ScoreDistribution value="8.0" recordCount="0"/>
							<ScoreDistribution value="9.0" recordCount="2"/>
						</Node>
						<Node score="9.0" recordCount="157">
							<True/>
							<ScoreDistribution value="0.0" recordCount="0"/>
							<ScoreDistribution value="1.0" recordCount="0"/>
							<ScoreDistribution value="2.0" recordCount="0"/>
							<ScoreDistribution value="3.0" recordCount="0"/>
							<ScoreDistribution value="4.0" recordCount="0"/>
							<ScoreDistribution value="5.0" recordCount="0"/>
							<ScoreDistribution value="6.0" recordCount="0"/>
							<ScoreDistribution value="7.0" recordCount="0"/>
							<ScoreDistribution value="8.0" recordCount="0"/>
							<ScoreDistribution value="9.0" recordCount="157"/>
						</Node>
					</Node>
				</TreeModel>
			</Segment>
			<Segment id="3">
				<True/>
				<TreeModel functionName="classification" missingValueStrategy="nullPrediction">
					<MiningSchema>
						<MiningField name="double(x13)"/>
						<MiningField name="double(x12)"/>
						<MiningField name="double(x8)"/>
						<MiningField name="double(x9)"/>
						<MiningField name="double(x1)"/>
						<MiningField name="double(x5)"/>
						<MiningField name="double(x3)"/>
					</MiningSchema>
					<Node>
						<True/>
						<Node>
							<SimplePredicate field="double(x5)" operator="lessOrEqual" value="10.565420627593994"/>
							<Node>
								<SimplePredicate field="double(x12)" operator="lessOrEqual" value="1.9480438828468323"/>
								<Node>
									<SimplePredicate field="double(x12)" operator="lessOrEqual" value="1.159786880016327"/>
									<Node score="8.0" recordCount="603">
										<SimplePredicate field="double(x3)" operator="lessOrEqual" value="0.6647246778011322"/>
										<ScoreDistribution value="0.0" recordCount="6"/>
										<ScoreDistribution value="1.0" recordCount="0"/>
										<ScoreDistribution value="2.0" recordCount="153"/>
										<ScoreDistribution value="3.0" recordCount="0"/>
										<ScoreDistribution value="4.0" recordCount="0"/>
										<ScoreDistribution value="5.0" recordCount="140"/>
										<ScoreDistribution value="6.0" recordCount="149"/>
										<ScoreDistribution value="7.0" recordCount="0"/>
										<ScoreDistribution value="8.0" recordCount="155"/>
										<ScoreDistribution value="9.0" recordCount="0"/>
									</Node>
									<Node score="0.0" recordCount="156">
										<True/>
										<ScoreDistribution value="0.0" recordCount="155"/>
										<ScoreDistribution value="1.0" recordCount="0"/>
										<ScoreDistribution value="2.0" recordCount="0"/>
										<ScoreDistribution value="3.0" recordCount="0"/>
										<ScoreDistribution value="4.0" recordCount="0"/>
										<ScoreDistribution value="5.0" recordCount="1"/>
										<ScoreDistribution value="6.0" recordCount="0"/>
										<ScoreDistribution value="7.0" recordCount="0"/>
										<ScoreDistribution value="8.0" recordCount="0"/>
										<ScoreDistribution value="9.0" recordCount="0"/>
									</Node>
								</Node>
								<Node score="5.0" recordCount="19">
									<SimplePredicate field="double(x8)" operator="lessOrEqual" value="0.08682902529835701"/>
									<ScoreDistribution value="0.0" recordCount="0"/>
									<ScoreDistribution value="1.0" recordCount="0"/>
									<ScoreDistribution value="2.0" recordCount="0"/>
									<ScoreDistribution value="3.0" recordCount="0"/>
									<ScoreDistribution value="4.0" recordCount="0"/>
									<ScoreDistribution value="5.0" recordCount="10"/>
									<ScoreDistribution value="6.0" recordCount="0"/>
									<ScoreDistribution value="7.0" recordCount="0"/>
									<ScoreDistribution value="8.0" recordCount="9"/>
									<ScoreDistribution value="9.0" recordCount="0"/>
								</Node>
								<Node score="1.0" recordCount="169">
									<True/>
									<ScoreDistribution value="0.0" recordCount="0"/>
									<ScoreDistribution value="1.0" recordCount="167"/>
									<ScoreDistribution value="2.0" recordCount="0"/>
									<ScoreDistribution value="3.0" recordCount="0"/>
									<ScoreDistribution value="4.0" recordCount="2"/>
									<ScoreDistribution value="5.0" recordCount="0"/>
									<ScoreDistribution value="6.0" recordCount="0"/>
									<ScoreDistribution value="7.0" recordCount="0"/>
									<ScoreDistribution value="8.0" recordCount="0"/>
									<ScoreDistribution value="9.0" recordCount="0"/>
								</Node>
							</Node>
							<Node>
								<SimplePredicate field="double(x13)" operator="lessOrEqual" value="0.6027455031871796"/>
								<Node score="7.0" recordCount="2">
									<SimplePredicate field="double(x9)" operator="lessOrEqual" value="0.008994012605398893"/>
									<ScoreDistribution value="0.0" recordCount="0"/>
									<ScoreDistribution value="1.0" recordCount="0"/>
									<ScoreDistribution value="2.0" recordCount="0"/>
									<ScoreDistribution value="3.0" recordCount="0"/>
									<ScoreDistribution value="4.0" recordCount="0"/>
									<ScoreDistribution value="5.0" recordCount="0"/>
									<ScoreDistribution value="6.0" recordCount="0"/>
									<ScoreDistribution value="7.0" recordCount="1"/>
									<ScoreDistribution value="8.0" recordCount="0"/>
									<ScoreDistribution value="9.0" recordCount="1"/>
								</Node>
								<Node score="7.0" recordCount="168">
									<True/>
									<ScoreDistribution value="0.0" recordCount="0"/>
									<ScoreDistribution value="1.0" recordCount="0"/>
									<ScoreDistribution value="2.0" recordCount="0"/>
									<ScoreDistribution value="3.0" recordCount="0"/>
									<ScoreDistribution value="4.0" recordCount="0"/>
									<ScoreDistribution value="5.0" recordCount="0"/>
									<ScoreDistribution value="6.0" recordCount="0"/>
									<ScoreDistribution value="7.0" recordCount="168"/>
									<ScoreDistribution value="8.0" recordCount="0"/>
									<ScoreDistribution value="9.0" recordCount="0"/>
								</Node>
							</Node>
							<Node score="3.0" recordCount="190">
								<SimplePredicate field="double(x5)" operator="lessOrEqual" value="8.62906789779663"/>
								<ScoreDistribution value="0.0" recordCount="0"/>
								<ScoreDistribution value="1.0" recordCount="0"/>
								<ScoreDistribution value="2.0" recordCount="0"/>
								<ScoreDistribution value="3.0" recordCount="190"/>
								<ScoreDistribution value="4.0" recordCount="0"/>
								<ScoreDistribution value="5.0" recordCount="0"/>
								<ScoreDistribution value="6.0" recordCount="0"/>
								<ScoreDistribution value="7.0" recordCount="0"/>
								<ScoreDistribution value="8.0" recordCount="0"/>
								<ScoreDistribution value="9.0" recordCount="0"/>
							</Node>
							<Node score="3.0" recordCount="11">
								<True/>
								<ScoreDistribution value="0.0" recordCount="0"/>
								<ScoreDistribution value="1.0" recordCount="0"/>
								<ScoreDistribution value="2.0" recordCount="0"/>
								<ScoreDistribution value="3.0" recordCount="10"/>
								<ScoreDistribution value="4.0" recordCount="0"/>
								<ScoreDistribution value="5.0" recordCount="0"/>
								<ScoreDistribution value="6.0" recordCount="0"/>
								<ScoreDistribution value="7.0" recordCount="1"/>
								<ScoreDistribution value="8.0" recordCount="0"/>
								<ScoreDistribution value="9.0" recordCount="0"/>
							</Node>
						</Node>
						<Node>
							<SimplePredicate field="double(x12)" operator="lessOrEqual" value="2.4706382751464844"/>
							<Node>
								<SimplePredicate field="double(x3)" operator="lessOrEqual" value="0.4409392476081848"/>
								<Node score="4.0" recordCount="48">
									<SimplePredicate field="double(x5)" operator="lessOrEqual" value="12.486527442932129"/>
									<ScoreDistribution value="0.0" recordCount="0"/>
									<ScoreDistribution value="1.0" recordCount="0"/>
									<ScoreDistribution value="2.0" recordCount="0"/>
									<ScoreDistribution value="3.0" recordCount="0"/>
									<ScoreDistribution value="4.0" recordCount="45"/>
									<ScoreDistribution value="5.0" recordCount="3"/>
									<ScoreDistribution value="6.0" recordCount="0"/>
									<ScoreDistribution value="7.0" recordCount="0"/>
									<ScoreDistribution value="8.0" recordCount="0"/>
									<ScoreDistribution value="9.0" recordCount="0"/>
								</Node>
								<Node score="4.0" recordCount="101">
									<True/>
									<ScoreDistribution value="0.0" recordCount="0"/>
									<ScoreDistribution value="1.0" recordCount="0"/>
									<ScoreDistribution value="2.0" recordCount="0"/>
									<ScoreDistribution value="3.0" recordCount="0"/>
									<ScoreDistribution value="4.0" recordCount="101"/>
									<ScoreDistribution value="5.0" recordCount="0"/>
									<ScoreDistribution value="6.0" recordCount="0"/>
									<ScoreDistribution value="7.0" recordCount="0"/>
									<ScoreDistribution value="8.0" recordCount="0"/>
									<ScoreDistribution value="9.0" recordCount="0"/>
								</Node>
							</Node>
							<Node score="5.0" recordCount="15">
								<True/>
								<ScoreDistribution value="0.0" recordCount="0"/>
								<ScoreDistribution value="1.0" recordCount="0"/>
								<ScoreDistribution value="2.0" recordCount="0"/>
								<ScoreDistribution value="3.0" recordCount="0"/>
								<ScoreDistribution value="4.0" recordCount="0"/>
								<ScoreDistribution value="5.0" recordCount="15"/>
								<ScoreDistribution value="6.0" recordCount="0"/>
								<ScoreDistribution value="7.0" recordCount="0"/>
								<ScoreDistribution value="8.0" recordCount="0"/>
								<ScoreDistribution value="9.0" recordCount="0"/>
							</Node>
						</Node>
						<Node score="7.0" recordCount="4">
							<SimplePredicate field="double(x1)" operator="lessOrEqual" value="9.393095016479492"/>
							<ScoreDistribution value="0.0" recordCount="0"/>
							<ScoreDistribution value="1.0" recordCount="0"/>
							<ScoreDistribution value="2.0" recordCount="0"/>
							<ScoreDistribution value="3.0" recordCount="0"/>
							<ScoreDistribution value="4.0" recordCount="0"/>
							<ScoreDistribution value="5.0" recordCount="0"/>
							<ScoreDistribution value="6.0" recordCount="0"/>
							<ScoreDistribution value="7.0" recordCount="2"/>
							<ScoreDistribution value="8.0" recordCount="0"/>
							<ScoreDistribution value="9.0" recordCount="2"/>
						</Node>
						<Node score="9.0" recordCount="145">
							<True/>
							<ScoreDistribution value="0.0" recordCount="0"/>
							<ScoreDistribution value="1.0" recordCount="0"/>
							<ScoreDistribution value="2.0" recordCount="0"/>
							<ScoreDistribution value="3.0" recordCount="0"/>
							<ScoreDistribution value="4.0" recordCount="0"/>
							<ScoreDistribution value="5.0" recordCount="0"/>
							<ScoreDistribution value="6.0" recordCount="0"/>
							<ScoreDistribution value="7.0" recordCount="0"/>
							<ScoreDistribution value="8.0" recordCount="0"/>
							<ScoreDistribution value="9.0" recordCount="145"/>
						</Node>
					</Node>
				</TreeModel>
			</Segment>
			<Segment id="4">
				<True/>
				<TreeModel functionName="classification" missingValueStrategy="nullPrediction">
					<MiningSchema>
						<MiningField name="double(x10)"/>
						<MiningField name="double(x12)"/>
						<MiningField name="double(x8)"/>
						<MiningField name="double(x9)"/>
						<MiningField name="double(x5)"/>
						<MiningField name="double(x3)"/>
						<MiningField name="double(x6)"/>
					</MiningSchema>
					<Node>
						<True/>
						<Node>
							<SimplePredicate field="double(x10)" operator="lessOrEqual" value="0.14515350386500359"/>
							<Node score="0.0" recordCount="157">
								<SimplePredicate field="double(x8)" operator="lessOrEqual" value="0.019719150848686695"/>
								<ScoreDistribution value="0.0" recordCount="157"/>
								<ScoreDistribution value="1.0" recordCount="0"/>
								<ScoreDistribution value="2.0" recordCount="0"/>
								<ScoreDistribution value="3.0" recordCount="0"/>
								<ScoreDistribution value="4.0" recordCount="0"/>
								<ScoreDistribution value="5.0" recordCount="0"/>
								<ScoreDistribution value="6.0" recordCount="0"/>
								<ScoreDistribution value="7.0" recordCount="0"/>
								<ScoreDistribution value="8.0" recordCount="0"/>
								<ScoreDistribution value="9.0" recordCount="0"/>
							</Node>
							<Node>
								<SimplePredicate field="double(x9)" operator="lessOrEqual" value="0.006364747416228056"/>
								<Node score="6.0" recordCount="9">
									<SimplePredicate field="double(x6)" operator="lessOrEqual" value="3.230008840560913"/>
									<ScoreDistribution value="0.0" recordCount="0"/>
									<ScoreDistribution value="1.0" recordCount="0"/>
									<ScoreDistribution value="2.0" recordCount="0"/>
									<ScoreDistribution value="3.0" recordCount="0"/>
									<ScoreDistribution value="4.0" recordCount="0"/>
									<ScoreDistribution value="5.0" recordCount="2"/>
									<ScoreDistribution value="6.0" recordCount="6"/>
									<ScoreDistribution value="7.0" recordCount="0"/>
									<ScoreDistribution value="8.0" recordCount="1"/>
									<ScoreDistribution value="9.0" recordCount="0"/>
								</Node>
								<Node score="5.0" recordCount="194">
									<True/>
									<ScoreDistribution value="0.0" recordCount="0"/>
									<ScoreDistribution value="1.0" recordCount="0"/>
									<ScoreDistribution value="2.0" recordCount="0"/>
									<ScoreDistribution value="3.0" recordCount="0"/>
									<ScoreDistribution value="4.0" recordCount="0"/>
									<ScoreDistribution value="5.0" recordCount="178"/>
									<ScoreDistribution value="6.0" recordCount="2"/>
									<ScoreDistribution value="7.0" recordCount="0"/>
									<ScoreDistribution value="8.0" recordCount="14"/>
									<ScoreDistribution value="9.0" recordCount="0"/>
								</Node>
							</Node>
							<Node score="2.0" recordCount="583">
								<SimplePredicate field="double(x10)" operator="lessOrEqual" value="0.07258640229701996"/>
								<ScoreDistribution value="0.0" recordCount="0"/>
								<ScoreDistribution value="1.0" recordCount="0"/>
								<ScoreDistribution value="2.0" recordCount="164"/>
								<ScoreDistribution value="3.0" recordCount="0"/>
								<ScoreDistribution value="4.0" recordCount="135"/>
								<ScoreDistribution value="5.0" recordCount="0"/>
								<ScoreDistribution value="6.0" recordCount="145"/>
								<ScoreDistribution value="7.0" recordCount="0"/>
								<ScoreDistribution value="8.0" recordCount="139"/>
								<ScoreDistribution value="9.0" recordCount="0"/>
							</Node>
							<Node score="1.0" recordCount="173">
								<True/>
								<ScoreDistribution value="0.0" recordCount="0"/>
								<ScoreDistribution value="1.0" recordCount="172"/>
								<ScoreDistribution value="2.0" recordCount="0"/>
								<ScoreDistribution value="3.0" recordCount="0"/>
								<ScoreDistribution value="4.0" recordCount="0"/>
								<ScoreDistribution value="5.0" recordCount="0"/>
								<ScoreDistribution value="6.0" recordCount="0"/>
								<ScoreDistribution value="7.0" recordCount="0"/>
								<ScoreDistribution value="8.0" recordCount="1"/>
								<ScoreDistribution value="9.0" recordCount="0"/>
							</Node>
						</Node>
						<Node>
							<SimplePredicate field="double(x12)" operator="lessOrEqual" value="3.5380401611328125"/>
							<Node score="3.0" recordCount="169">
								<SimplePredicate field="double(x3)" operator="lessOrEqual" value="0.25258679687976837"/>
								<ScoreDistribution value="0.0" recordCount="0"/>
								<ScoreDistribution value="1.0" recordCount="0"/>
								<ScoreDistribution value="2.0" recordCount="0"/>
								<ScoreDistribution value="3.0" recordCount="169"/>
								<ScoreDistribution value="4.0" recordCount="0"/>
								<ScoreDistribution value="5.0" recordCount="0"/>
								<ScoreDistribution value="6.0" recordCount="0"/>
								<ScoreDistribution value="7.0" recordCount="0"/>
								<ScoreDistribution value="8.0" recordCount="0"/>
								<ScoreDistribution value="9.0" recordCount="0"/>
							</Node>
							<Node score="9.0" recordCount="8">
								<SimplePredicate field="double(x9)" operator="lessOrEqual" value="0.007099398877471685"/>
								<ScoreDistribution value="0.0" recordCount="0"/>
								<ScoreDistribution value="1.0" recordCount="0"/>
								<ScoreDistribution value="2.0" recordCount="0"/>
								<ScoreDistribution value="3.0" recordCount="0"/>
								<ScoreDistribution value="4.0" recordCount="0"/>
								<ScoreDistribution value="5.0" recordCount="0"/>
								<ScoreDistribution value="6.0" recordCount="0"/>
								<ScoreDistribution value="7.0" recordCount="0"/>
								<ScoreDistribution value="8.0" recordCount="0"/>
								<ScoreDistribution value="9.0" recordCount="8"/>
							</Node>
							<Node score="7.0" recordCount="172">
								<True/>
								<ScoreDistribution value="0.0" recordCount="0"/>
								<ScoreDistribution value="1.0" recordCount="0"/>
								<ScoreDistribution value="2.0" recordCount="0"/>
								<ScoreDistribution value="3.0" recordCount="0"/>
								<ScoreDistribution value="4.0" recordCount="0"/>
								<ScoreDistribution value="5.0" recordCount="0"/>
								<ScoreDistribution value="6.0" recordCount="0"/>
								<ScoreDistribution value="7.0" recordCount="172"/>
								<ScoreDistribution value="8.0" recordCount="0"/>
								<ScoreDistribution value="9.0" recordCount="0"/>
							</Node>
						</Node>
						<Node>
							<SimplePredicate field="double(x5)" operator="lessOrEqual" value="11.371251106262207"/>
							<Node score="7.0" recordCount="8">
								<SimplePredicate field="double(x9)" operator="lessOrEqual" value="0.017979697324335575"/>
								<ScoreDistribution value="0.0" recordCount="0"/>
								<ScoreDistribution value="1.0" recordCount="0"/>
								<ScoreDistribution value="2.0" recordCount="0"/>
								<ScoreDistribution value="3.0" recordCount="0"/>
								<ScoreDistribution value="4.0" recordCount="0"/>
								<ScoreDistribution value="5.0" recordCount="0"/>
								<ScoreDistribution value="6.0" recordCount="0"/>
								<ScoreDistribution value="7.0" recordCount="8"/>
								<ScoreDistribution value="8.0" recordCount="0"/>
								<ScoreDistribution value="9.0" recordCount="0"/>
							</Node>
							<Node score="3.0" recordCount="5">
								<True/>
								<ScoreDistribution value="0.0" recordCount="0"/>
								<ScoreDistribution value="1.0" recordCount="0"/>
								<ScoreDistribution value="2.0" recordCount="0"/>
								<ScoreDistribution value="3.0" recordCount="5"/>
								<ScoreDistribution value="4.0" recordCount="0"/>
								<ScoreDistribution value="5.0" recordCount="0"/>
								<ScoreDistribution value="6.0" recordCount="0"/>
								<ScoreDistribution value="7.0" recordCount="0"/>
								<ScoreDistribution value="8.0" recordCount="0"/>
								<ScoreDistribution value="9.0" recordCount="0"/>
							</Node>
						</Node>
						<Node score="9.0" recordCount="153">
							<True/>
							<ScoreDistribution value="0.0" recordCount="0"/>
							<ScoreDistribution value="1.0" recordCount="0"/>
							<ScoreDistribution value="2.0" recordCount="0"/>
							<ScoreDistribution value="3.0" recordCount="0"/>
							<ScoreDistribution value="4.0" recordCount="0"/>
							<ScoreDistribution value="5.0" recordCount="0"/>
							<ScoreDistribution value="6.0" recordCount="0"/>
							<ScoreDistribution value="7.0" recordCount="0"/>
							<ScoreDistribution value="8.0" recordCount="0"/>
							<ScoreDistribution value="9.0" recordCount="153"/>
						</Node>
					</Node>
				</TreeModel>
			</Segment>
			<Segment id="5">
				<True/>
				<TreeModel functionName="classification" missingValueStrategy="nullPrediction">
					<MiningSchema>
						<MiningField name="double(x13)"/>
						<MiningField name="double(x10)"/>
						<MiningField name="double(x8)"/>
						<MiningField name="double(x9)"/>
						<MiningField name="double(x5)"/>
						<MiningField name="double(x3)"/>
					</MiningSchema>
					<Node>
						<True/>
						<Node>
							<SimplePredicate field="double(x13)" operator="lessOrEqual" value="0.37870408594608307"/>
							<Node>
								<SimplePredicate field="double(x3)" operator="lessOrEqual" value="0.7024936676025391"/>
								<Node>
									<SimplePredicate field="double(x5)" operator="lessOrEqual" value="11.008323669433594"/>
									<Node score="2.0" recordCount="646">
										<SimplePredicate field="double(x13)" operator="lessOrEqual" value="0.27165892720222473"/>
										<ScoreDistribution value="0.0" recordCount="5"/>
										<ScoreDistribution value="1.0" recordCount="0"/>
										<ScoreDistribution value="2.0" recordCount="181"/>
										<ScoreDistribution value="3.0" recordCount="0"/>
										<ScoreDistribution value="4.0" recordCount="5"/>
										<ScoreDistribution value="5.0" recordCount="134"/>
										<ScoreDistribution value="6.0" recordCount="161"/>
										<ScoreDistribution value="7.0" recordCount="0"/>
										<ScoreDistribution value="8.0" recordCount="160"/>
										<ScoreDistribution value="9.0" recordCount="0"/>
									</Node>
									<Node score="1.0" recordCount="173">
										<True/>
										<ScoreDistribution value="0.0" recordCount="0"/>
										<ScoreDistribution value="1.0" recordCount="166"/>
										<ScoreDistribution value="2.0" recordCount="0"/>
										<ScoreDistribution value="3.0" recordCount="0"/>
										<ScoreDistribution value="4.0" recordCount="0"/>
										<ScoreDistribution value="5.0" recordCount="3"/>
										<ScoreDistribution value="6.0" recordCount="0"/>
										<ScoreDistribution value="7.0" recordCount="0"/>
										<ScoreDistribution value="8.0" recordCount="4"/>
										<ScoreDistribution value="9.0" recordCount="0"/>
									</Node>
								</Node>
								<Node score="5.0" recordCount="13">
									<SimplePredicate field="double(x8)" operator="lessOrEqual" value="0.07015023566782475"/>
									<ScoreDistribution value="0.0" recordCount="0"/>
									<ScoreDistribution value="1.0" recordCount="0"/>
									<ScoreDistribution value="2.0" recordCount="0"/>
									<ScoreDistribution value="3.0" recordCount="0"/>
									<ScoreDistribution value="4.0" recordCount="0"/>
									<ScoreDistribution value="5.0" recordCount="13"/>
									<ScoreDistribution value="6.0" recordCount="0"/>
									<ScoreDistribution value="7.0" recordCount="0"/>
									<ScoreDistribution value="8.0" recordCount="0"/>
									<ScoreDistribution value="9.0" recordCount="0"/>
								</Node>
								<Node score="4.0" recordCount="159">
									<True/>
									<ScoreDistribution value="0.0" recordCount="0"/>
									<ScoreDistribution value="1.0" recordCount="0"/>
									<ScoreDistribution value="2.0" recordCount="0"/>
									<ScoreDistribution value="3.0" recordCount="0"/>
									<ScoreDistribution value="4.0" recordCount="159"/>
									<ScoreDistribution value="5.0" recordCount="0"/>
									<ScoreDistribution value="6.0" recordCount="0"/>
									<ScoreDistribution value="7.0" recordCount="0"/>
									<ScoreDistribution value="8.0" recordCount="0"/>
									<ScoreDistribution value="9.0" recordCount="0"/>
								</Node>
							</Node>
							<Node score="0.0" recordCount="156">
								<True/>
								<ScoreDistribution value="0.0" recordCount="156"/>
								<ScoreDistribution value="1.0" recordCount="0"/>
								<ScoreDistribution value="2.0" recordCount="0"/>
								<ScoreDistribution value="3.0" recordCount="0"/>
								<ScoreDistribution value="4.0" recordCount="0"/>
								<ScoreDistribution value="5.0" recordCount="0"/>
								<ScoreDistribution value="6.0" recordCount="0"/>
								<ScoreDistribution value="7.0" recordCount="0"/>
								<ScoreDistribution value="8.0" recordCount="0"/>
								<ScoreDistribution value="9.0" recordCount="0"/>
							</Node>
						</Node>
						<Node>
							<SimplePredicate field="double(x5)" operator="lessOrEqual" value="11.319033145904541"/>
							<Node>
								<SimplePredicate field="double(x10)" operator="lessOrEqual" value="0.36280858516693115"/>
								<Node score="9.0" recordCount="3">
									<SimplePredicate field="double(x9)" operator="lessOrEqual" value="0.006647507194429636"/>
									<ScoreDistribution value="0.0" recordCount="0"/>
									<ScoreDistribution value="1.0" recordCount="0"/>
									<ScoreDistribution value="2.0" recordCount="0"/>
									<ScoreDistribution value="3.0" recordCount="0"/>
									<ScoreDistribution value="4.0" recordCount="0"/>
									<ScoreDistribution value="5.0" recordCount="0"/>
									<ScoreDistribution value="6.0" recordCount="0"/>
									<ScoreDistribution value="7.0" recordCount="0"/>
									<ScoreDistribution value="8.0" recordCount="0"/>
									<ScoreDistribution value="9.0" recordCount="3"/>
								</Node>
								<Node score="7.0" recordCount="171">
									<True/>
									<ScoreDistribution value="0.0" recordCount="0"/>
									<ScoreDistribution value="1.0" recordCount="0"/>
									<ScoreDistribution value="2.0" recordCount="0"/>
									<ScoreDistribution value="3.0" recordCount="0"/>
									<ScoreDistribution value="4.0" recordCount="0"/>
									<ScoreDistribution value="5.0" recordCount="0"/>
									<ScoreDistribution value="6.0" recordCount="0"/>
									<ScoreDistribution value="7.0" recordCount="171"/>
									<ScoreDistribution value="8.0" recordCount="0"/>
									<ScoreDistribution value="9.0" recordCount="0"/>
								</Node>
							</Node>
							<Node score="3.0" recordCount="169">
								<True/>
								<ScoreDistribution value="0.0" recordCount="0"/>
								<ScoreDistribution value="1.0" recordCount="0"/>
								<ScoreDistribution value="2.0" recordCount="0"/>
								<ScoreDistribution value="3.0" recordCount="169"/>
								<ScoreDistribution value="4.0" recordCount="0"/>
								<ScoreDistribution value="5.0" recordCount="0"/>
								<ScoreDistribution value="6.0" recordCount="0"/>
								<ScoreDistribution value="7.0" recordCount="0"/>
								<ScoreDistribution value="8.0" recordCount="0"/>
								<ScoreDistribution value="9.0" recordCount="0"/>
							</Node>
						</Node>
						<Node score="9.0" recordCount="141">
							<True/>
							<ScoreDistribution value="0.0" recordCount="0"/>
							<ScoreDistribution value="1.0" recordCount="0"/>
							<ScoreDistribution value="2.0" recordCount="0"/>
							<ScoreDistribution value="3.0" recordCount="0"/>
							<ScoreDistribution value="4.0" recordCount="0"/>
							<ScoreDistribution value="5.0" recordCount="0"/>
							<ScoreDistribution value="6.0" recordCount="0"/>
							<ScoreDistribution value="7.0" recordCount="0"/>
							<ScoreDistribution value="8.0" recordCount="0"/>
							<ScoreDistribution value="9.0" recordCount="141"/>
						</Node>
					</Node>
				</TreeModel>
			</Segment>
			<Segment id="6">
				<True/>
				<TreeModel functionName="classification" missingValueStrategy="nullPrediction">
					<MiningSchema>
						<MiningField name="double(x10)"/>
						<MiningField name="double(x12)"/>
						<MiningField name="double(x8)"/>
						<MiningField name="double(x9)"/>
						<MiningField name="double(x1)"/>
					</MiningSchema>
					<Node>
						<True/>
						<Node>
							<SimplePredicate field="double(x1)" operator="lessOrEqual" value="9.442705154418945"/>
							<Node score="0.0" recordCount="175">
								<SimplePredicate field="double(x8)" operator="lessOrEqual" value="0.019719150848686695"/>
								<ScoreDistribution value="0.0" recordCount="175"/>
								<ScoreDistribution value="1.0" recordCount="0"/>
								<ScoreDistribution value="2.0" recordCount="0"/>
								<ScoreDistribution value="3.0" recordCount="0"/>
								<ScoreDistribution value="4.0" recordCount="0"/>
								<ScoreDistribution value="5.0" recordCount="0"/>
								<ScoreDistribution value="6.0" recordCount="0"/>
								<ScoreDistribution value="7.0" recordCount="0"/>
								<ScoreDistribution value="8.0" recordCount="0"/>
								<ScoreDistribution value="9.0" recordCount="0"/>
							</Node>
							<Node>
								<SimplePredicate field="double(x8)" operator="lessOrEqual" value="0.11420582234859467"/>
								<Node score="5.0" recordCount="808">
									<SimplePredicate field="double(x10)" operator="lessOrEqual" value="0.3566836714744568"/>
									<ScoreDistribution value="0.0" recordCount="0"/>
									<ScoreDistribution value="1.0" recordCount="157"/>
									<ScoreDistribution value="2.0" recordCount="160"/>
									<ScoreDistribution value="3.0" recordCount="0"/>
									<ScoreDistribution value="4.0" recordCount="0"/>
									<ScoreDistribution value="5.0" recordCount="171"/>
									<ScoreDistribution value="6.0" recordCount="5"/>
									<ScoreDistribution value="7.0" recordCount="171"/>
									<ScoreDistribution value="8.0" recordCount="144"/>
									<ScoreDistribution value="9.0" recordCount="0"/>
								</Node>
								<Node score="3.0" recordCount="172">
									<True/>
									<ScoreDistribution value="0.0" recordCount="0"/>
									<ScoreDistribution value="1.0" recordCount="0"/>
									<ScoreDistribution value="2.0" recordCount="0"/>
									<ScoreDistribution value="3.0" recordCount="171"/>
									<ScoreDistribution value="4.0" recordCount="0"/>
									<ScoreDistribution value="5.0" recordCount="0"/>
									<ScoreDistribution value="6.0" recordCount="0"/>
									<ScoreDistribution value="7.0" recordCount="1"/>
									<ScoreDistribution value="8.0" recordCount="0"/>
									<ScoreDistribution value="9.0" recordCount="0"/>
								</Node>
							</Node>
							<Node score="6.0" recordCount="148">
								<SimplePredicate field="double(x12)" operator="lessOrEqual" value="0.45635052025318146"/>
								<ScoreDistribution value="0.0" recordCount="0"/>
								<ScoreDistribution value="1.0" recordCount="0"/>
								<ScoreDistribution value="2.0" recordCount="0"/>
								<ScoreDistribution value="3.0" recordCount="0"/>
								<ScoreDistribution value="4.0" recordCount="0"/>
								<ScoreDistribution value="5.0" recordCount="0"/>
								<ScoreDistribution value="6.0" recordCount="148"/>
								<ScoreDistribution value="7.0" recordCount="0"/>
								<ScoreDistribution value="8.0" recordCount="0"/>
								<ScoreDistribution value="9.0" recordCount="0"/>
							</Node>
							<Node score="8.0" recordCount="3">
								<True/>
								<ScoreDistribution value="0.0" recordCount="0"/>
								<ScoreDistribution value="1.0" recordCount="0"/>
								<ScoreDistribution value="2.0" recordCount="0"/>
								<ScoreDistribution value="3.0" recordCount="0"/>
								<ScoreDistribution value="4.0" recordCount="0"/>
								<ScoreDistribution value="5.0" recordCount="0"/>
								<ScoreDistribution value="6.0" recordCount="0"/>
								<ScoreDistribution value="7.0" recordCount="0"/>
								<ScoreDistribution value="8.0" recordCount="3"/>
								<ScoreDistribution value="9.0" recordCount="0"/>
							</Node>
						</Node>
						<Node>
							<SimplePredicate field="double(x12)" operator="lessOrEqual" value="2.46211040019989"/>
							<Node score="5.0" recordCount="16">
								<SimplePredicate field="double(x9)" operator="lessOrEqual" value="0.01356674381531775"/>
								<ScoreDistribution value="0.0" recordCount="0"/>
								<ScoreDistribution value="1.0" recordCount="0"/>
								<ScoreDistribution value="2.0" recordCount="0"/>
								<ScoreDistribution value="3.0" recordCount="0"/>
								<ScoreDistribution value="4.0" recordCount="0"/>
								<ScoreDistribution value="5.0" recordCount="16"/>
								<ScoreDistribution value="6.0" recordCount="0"/>
								<ScoreDistribution value="7.0" recordCount="0"/>
								<ScoreDistribution value="8.0" recordCount="0"/>
								<ScoreDistribution value="9.0" recordCount="0"/>
							</Node>
							<Node score="4.0" recordCount="150">
								<True/>
								<ScoreDistribution value="0.0" recordCount="0"/>
								<ScoreDistribution value="1.0" recordCount="0"/>
								<ScoreDistribution value="2.0" recordCount="0"/>
								<ScoreDistribution value="3.0" recordCount="0"/>
								<ScoreDistribution value="4.0" recordCount="150"/>
								<ScoreDistribution value="5.0" recordCount="0"/>
								<ScoreDistribution value="6.0" recordCount="0"/>
								<ScoreDistribution value="7.0" recordCount="0"/>
								<ScoreDistribution value="8.0" recordCount="0"/>
								<ScoreDistribution value="9.0" recordCount="0"/>
							</Node>
						</Node>
						<Node score="9.0" recordCount="157">
							<SimplePredicate field="double(x9)" operator="lessOrEqual" value="0.011832860298454762"/>
							<ScoreDistribution value="0.0" recordCount="0"/>
							<ScoreDistribution value="1.0" recordCount="0"/>
							<ScoreDistribution value="2.0" recordCount="0"/>
							<ScoreDistribution value="3.0" recordCount="0"/>
							<ScoreDistribution value="4.0" recordCount="0"/>
							<ScoreDistribution value="5.0" recordCount="0"/>
							<ScoreDistribution value="6.0" recordCount="0"/>
							<ScoreDistribution value="7.0" recordCount="0"/>
							<ScoreDistribution value="8.0" recordCount="0"/>
							<ScoreDistribution value="9.0" recordCount="157"/>
						</Node>
						<Node score="7.0" recordCount="2">
							<True/>
							<ScoreDistribution value="0.0" recordCount="0"/>
							<ScoreDistribution value="1.0" recordCount="0"/>
							<ScoreDistribution value="2.0" recordCount="0"/>
							<ScoreDistribution value="3.0" recordCount="0"/>
							<ScoreDistribution value="4.0" recordCount="0"/>
							<ScoreDistribution value="5.0" recordCount="0"/>
							<ScoreDistribution value="6.0" recordCount="0"/>
							<ScoreDistribution value="7.0" recordCount="2"/>
							<ScoreDistribution value="8.0" recordCount="0"/>
							<ScoreDistribution value="9.0" recordCount="0"/>
						</Node>
					</Node>
				</TreeModel>
			</Segment>
			<Segment id="7">
				<True/>
				<TreeModel functionName="classification" missingValueStrategy="nullPrediction">
					<MiningSchema>
						<MiningField name="double(x13)"/>
						<MiningField name="double(x10)"/>
						<MiningField name="double(x12)"/>
						<MiningField name="double(x7)"/>
						<MiningField name="double(x8)"/>
						<MiningField name="double(x9)"/>
						<MiningField name="double(x3)"/>
					</MiningSchema>
					<Node>
						<True/>
						<Node>
							<SimplePredicate field="double(x10)" operator="lessOrEqual" value="0.006302133202552795"/>
							<Node score="5.0" recordCount="4">
								<SimplePredicate field="double(x3)" operator="lessOrEqual" value="0.644353449344635"/>
								<ScoreDistribution value="0.0" recordCount="1"/>
								<ScoreDistribution value="1.0" recordCount="0"/>
								<ScoreDistribution value="2.0" recordCount="0"/>
								<ScoreDistribution value="3.0" recordCount="0"/>
								<ScoreDistribution value="4.0" recordCount="0"/>
								<ScoreDistribution value="5.0" recordCount="3"/>
								<ScoreDistribution value="6.0" recordCount="0"/>
								<ScoreDistribution value="7.0" recordCount="0"/>
								<ScoreDistribution value="8.0" recordCount="0"/>
								<ScoreDistribution value="9.0" recordCount="0"/>
							</Node>
							<Node score="0.0" recordCount="165">
								<True/>
								<ScoreDistribution value="0.0" recordCount="165"/>
								<ScoreDistribution value="1.0" recordCount="0"/>
								<ScoreDistribution value="2.0" recordCount="0"/>
								<ScoreDistribution value="3.0" recordCount="0"/>
								<ScoreDistribution value="4.0" recordCount="0"/>
								<ScoreDistribution value="5.0" recordCount="0"/>
								<ScoreDistribution value="6.0" recordCount="0"/>
								<ScoreDistribution value="7.0" recordCount="0"/>
								<ScoreDistribution value="8.0" recordCount="0"/>
								<ScoreDistribution value="9.0" recordCount="0"/>
							</Node>
						</Node>
						<Node>
							<SimplePredicate field="double(x13)" operator="lessOrEqual" value="0.27038273215293884"/>
							<Node>
								<SimplePredicate field="double(x8)" operator="lessOrEqual" value="0.11933887004852295"/>
								<Node score="5.0" recordCount="182">
									<SimplePredicate field="double(x9)" operator="lessOrEqual" value="0.006344963796436787"/>
									<ScoreDistribution value="0.0" recordCount="0"/>
									<ScoreDistribution value="1.0" recordCount="0"/>
									<ScoreDistribution value="2.0" recordCount="0"/>
									<ScoreDistribution value="3.0" recordCount="0"/>
									<ScoreDistribution value="4.0" recordCount="0"/>
									<ScoreDistribution value="5.0" recordCount="162"/>
									<ScoreDistribution value="6.0" recordCount="1"/>
									<ScoreDistribution value="7.0" recordCount="0"/>
									<ScoreDistribution value="8.0" recordCount="19"/>
									<ScoreDistribution value="9.0" recordCount="0"/>
								</Node>
								<Node score="4.0" recordCount="450">
									<True/>
									<ScoreDistribution value="0.0" recordCount="0"/>
									<ScoreDistribution value="1.0" recordCount="0"/>
									<ScoreDistribution value="2.0" recordCount="149"/>
									<ScoreDistribution value="3.0" recordCount="0"/>
									<ScoreDistribution value="4.0" recordCount="151"/>
									<ScoreDistribution value="5.0" recordCount="0"/>
									<ScoreDistribution value="6.0" recordCount="15"/>
									<ScoreDistribution value="7.0" recordCount="0"/>
									<ScoreDistribution value="8.0" recordCount="135"/>
									<ScoreDistribution value="9.0" recordCount="0"/>
								</Node>
							</Node>
							<Node score="6.0" recordCount="162">
								<SimplePredicate field="double(x13)" operator="lessOrEqual" value="0.11432409286499023"/>
								<ScoreDistribution value="0.0" recordCount="0"/>
								<ScoreDistribution value="1.0" recordCount="0"/>
								<ScoreDistribution value="2.0" recordCount="0"/>
								<ScoreDistribution value="3.0" recordCount="0"/>
								<ScoreDistribution value="4.0" recordCount="0"/>
								<ScoreDistribution value="5.0" recordCount="0"/>
								<ScoreDistribution value="6.0" recordCount="162"/>
								<ScoreDistribution value="7.0" recordCount="0"/>
								<ScoreDistribution value="8.0" recordCount="0"/>
								<ScoreDistribution value="9.0" recordCount="0"/>
							</Node>
							<Node score="8.0" recordCount="4">
								<True/>
								<ScoreDistribution value="0.0" recordCount="0"/>
								<ScoreDistribution value="1.0" recordCount="0"/>
								<ScoreDistribution value="2.0" recordCount="0"/>
								<ScoreDistribution value="3.0" recordCount="0"/>
								<ScoreDistribution value="4.0" recordCount="1"/>
								<ScoreDistribution value="5.0" recordCount="0"/>
								<ScoreDistribution value="6.0" recordCount="0"/>
								<ScoreDistribution value="7.0" recordCount="0"/>
								<ScoreDistribution value="8.0" recordCount="3"/>
								<ScoreDistribution value="9.0" recordCount="0"/>
							</Node>
						</Node>
						<Node>
							<SimplePredicate field="double(x12)" operator="lessOrEqual" value="1.7697307467460632"/>
							<Node score="5.0" recordCount="4">
								<SimplePredicate field="double(x7)" operator="lessOrEqual" value="0.31079545617103577"/>
								<ScoreDistribution value="0.0" recordCount="0"/>
								<ScoreDistribution value="1.0" recordCount="0"/>
								<ScoreDistribution value="2.0" recordCount="0"/>
								<ScoreDistribution value="3.0" recordCount="0"/>
								<ScoreDistribution value="4.0" recordCount="0"/>
								<ScoreDistribution value="5.0" recordCount="2"/>
								<ScoreDistribution value="6.0" recordCount="0"/>
								<ScoreDistribution value="7.0" recordCount="0"/>
								<ScoreDistribution value="8.0" recordCount="2"/>
								<ScoreDistribution value="9.0" recordCount="0"/>
							</Node>
							<Node score="1.0" recordCount="193">
								<True/>
								<ScoreDistribution value="0.0" recordCount="0"/>
								<ScoreDistribution value="1.0" recordCount="193"/>
								<ScoreDistribution value="2.0" recordCount="0"/>
								<ScoreDistribution value="3.0" recordCount="0"/>
								<ScoreDistribution value="4.0" recordCount="0"/>
								<ScoreDistribution value="5.0" recordCount="0"/>
								<ScoreDistribution value="6.0" recordCount="0"/>
								<ScoreDistribution value="7.0" recordCount="0"/>
								<ScoreDistribution value="8.0" recordCount="0"/>
								<ScoreDistribution value="9.0" recordCount="0"/>
							</Node>
						</Node>
						<Node score="3.0" recordCount="172">
							<SimplePredicate field="double(x3)" operator="lessOrEqual" value="0.2548738345503807"/>
							<ScoreDistribution value="0.0" recordCount="0"/>
							<ScoreDistribution value="1.0" recordCount="0"/>
							<ScoreDistribution value="2.0" recordCount="0"/>
							<ScoreDistribution value="3.0" recordCount="171"/>
							<ScoreDistribution value="4.0" recordCount="0"/>
							<ScoreDistribution value="5.0" recordCount="1"/>
							<ScoreDistribution value="6.0" recordCount="0"/>
							<ScoreDistribution value="7.0" recordCount="0"/>
							<ScoreDistribution value="8.0" recordCount="0"/>
							<ScoreDistribution value="9.0" recordCount="0"/>
						</Node>
						<Node score="7.0" recordCount="295">
							<True/>
							<ScoreDistribution value="0.0" recordCount="0"/>
							<ScoreDistribution value="1.0" recordCount="0"/>
							<ScoreDistribution value="2.0" recordCount="0"/>
							<ScoreDistribution value="3.0" recordCount="0"/>
							<ScoreDistribution value="4.0" recordCount="0"/>
							<ScoreDistribution value="5.0" recordCount="3"/>
							<ScoreDistribution value="6.0" recordCount="0"/>
							<ScoreDistribution value="7.0" recordCount="151"/>
							<ScoreDistribution value="8.0" recordCount="0"/>
							<ScoreDistribution value="9.0" recordCount="141"/>
						</Node>
					</Node>
				</TreeModel>
			</Segment>
			<Segment id="8">
				<True/>
				<TreeModel functionName="classification" missingValueStrategy="nullPrediction">
					<MiningSchema>
						<MiningField name="double(x12)"/>
						<MiningField name="double(x8)"/>
						<MiningField name="double(x1)"/>
						<MiningField name="double(x3)"/>
						<MiningField name="double(x6)"/>
					</MiningSchema>
					<Node>
						<True/>
						<Node>
							<SimplePredicate field="double(x3)" operator="lessOrEqual" value="0.2278088480234146"/>
							<Node score="8.0" recordCount="6">
								<SimplePredicate field="double(x12)" operator="lessOrEqual" value="2.173341453075409"/>
								<ScoreDistribution value="0.0" recordCount="0"/>
								<ScoreDistribution value="1.0" recordCount="0"/>
								<ScoreDistribution value="2.0" recordCount="0"/>
								<ScoreDistribution value="3.0" recordCount="0"/>
								<ScoreDistribution value="4.0" recordCount="0"/>
								<ScoreDistribution value="5.0" recordCount="0"/>
								<ScoreDistribution value="6.0" recordCount="0"/>
								<ScoreDistribution value="7.0" recordCount="0"/>
								<ScoreDistribution value="8.0" recordCount="6"/>
								<ScoreDistribution value="9.0" recordCount="0"/>
							</Node>
							<Node score="3.0" recordCount="173">
								<True/>
								<ScoreDistribution value="0.0" recordCount="0"/>
								<ScoreDistribution value="1.0" recordCount="0"/>
								<ScoreDistribution value="2.0" recordCount="0"/>
								<ScoreDistribution value="3.0" recordCount="173"/>
								<ScoreDistribution value="4.0" recordCount="0"/>
								<ScoreDistribution value="5.0" recordCount="0"/>
								<ScoreDistribution value="6.0" recordCount="0"/>
								<ScoreDistribution value="7.0" recordCount="0"/>
								<ScoreDistribution value="8.0" recordCount="0"/>
								<ScoreDistribution value="9.0" recordCount="0"/>
							</Node>
						</Node>
						<Node>
							<SimplePredicate field="double(x12)" operator="lessOrEqual" value="2.0567535161972046"/>
							<Node score="0.0" recordCount="159">
								<SimplePredicate field="double(x8)" operator="lessOrEqual" value="0.023154019378125668"/>
								<ScoreDistribution value="0.0" recordCount="159"/>
								<ScoreDistribution value="1.0" recordCount="0"/>
								<ScoreDistribution value="2.0" recordCount="0"/>
								<ScoreDistribution value="3.0" recordCount="0"/>
								<ScoreDistribution value="4.0" recordCount="0"/>
								<ScoreDistribution value="5.0" recordCount="0"/>
								<ScoreDistribution value="6.0" recordCount="0"/>
								<ScoreDistribution value="7.0" recordCount="0"/>
								<ScoreDistribution value="8.0" recordCount="0"/>
								<ScoreDistribution value="9.0" recordCount="0"/>
							</Node>
							<Node score="5.0" recordCount="788">
								<SimplePredicate field="double(x6)" operator="lessOrEqual" value="6.412287712097168"/>
								<ScoreDistribution value="0.0" recordCount="0"/>
								<ScoreDistribution value="1.0" recordCount="142"/>
								<ScoreDistribution value="2.0" recordCount="161"/>
								<ScoreDistribution value="3.0" recordCount="0"/>
								<ScoreDistribution value="4.0" recordCount="2"/>
								<ScoreDistribution value="5.0" recordCount="174"/>
								<ScoreDistribution value="6.0" recordCount="153"/>
								<ScoreDistribution value="7.0" recordCount="0"/>
								<ScoreDistribution value="8.0" recordCount="156"/>
								<ScoreDistribution value="9.0" recordCount="0"/>
							</Node>
							<Node score="4.0" recordCount="175">
								<True/>
								<ScoreDistribution value="0.0" recordCount="0"/>
								<ScoreDistribution value="1.0" recordCount="0"/>
								<ScoreDistribution value="2.0" recordCount="0"/>
								<ScoreDistribution value="3.0" recordCount="0"/>
								<ScoreDistribution value="4.0" recordCount="160"/>
								<ScoreDistribution value="5.0" recordCount="15"/>
								<ScoreDistribution value="6.0" recordCount="0"/>
								<ScoreDistribution value="7.0" recordCount="0"/>
								<ScoreDistribution value="8.0" recordCount="0"/>
								<ScoreDistribution value="9.0" recordCount="0"/>
							</Node>
						</Node>
						<Node>
							<SimplePredicate field="double(x3)" operator="lessOrEqual" value="0.3737717866897583"/>
							<Node score="7.0" recordCount="164">
								<SimplePredicate field="double(x12)" operator="lessOrEqual" value="3.7240283489227295"/>
								<ScoreDistribution value="0.0" recordCount="0"/>
								<ScoreDistribution value="1.0" recordCount="0"/>
								<ScoreDistribution value="2.0" recordCount="0"/>
								<ScoreDistribution value="3.0" recordCount="0"/>
								<ScoreDistribution value="4.0" recordCount="0"/>
								<ScoreDistribution value="5.0" recordCount="0"/>
								<ScoreDistribution value="6.0" recordCount="0"/>
								<ScoreDistribution value="7.0" recordCount="164"/>
								<ScoreDistribution value="8.0" recordCount="0"/>
								<ScoreDistribution value="9.0" recordCount="0"/>
							</Node>
							<Node score="7.0" recordCount="2">
								<True/>
								<ScoreDistribution value="0.0" recordCount="0"/>
								<ScoreDistribution value="1.0" recordCount="0"/>
								<ScoreDistribution value="2.0" recordCount="0"/>
								<ScoreDistribution value="3.0" recordCount="0"/>
								<ScoreDistribution value="4.0" recordCount="0"/>
								<ScoreDistribution value="5.0" recordCount="0"/>
								<ScoreDistribution value="6.0" recordCount="0"/>
								<ScoreDistribution value="7.0" recordCount="1"/>
								<ScoreDistribution value="8.0" recordCount="0"/>
								<ScoreDistribution value="9.0" recordCount="1"/>
							</Node>
						</Node>
						<Node score="7.0" recordCount="4">
							<SimplePredicate field="double(x1)" operator="lessOrEqual" value="8.598561763763428"/>
							<ScoreDistribution value="0.0" recordCount="0"/>
							<ScoreDistribution value="1.0" recordCount="0"/>
							<ScoreDistribution value="2.0" recordCount="0"/>
							<ScoreDistribution value="3.0" recordCount="0"/>
							<ScoreDistribution value="4.0" recordCount="0"/>
							<ScoreDistribution value="5.0" recordCount="0"/>
							<ScoreDistribution value="6.0" recordCount="0"/>
							<ScoreDistribution value="7.0" recordCount="2"/>
							<ScoreDistribution value="8.0" recordCount="0"/>
							<ScoreDistribution value="9.0" recordCount="2"/>
						</Node>
						<Node score="9.0" recordCount="160">
							<True/>
							<ScoreDistribution value="0.0" recordCount="0"/>
							<ScoreDistribution value="1.0" recordCount="0"/>
							<ScoreDistribution value="2.0" recordCount="0"/>
							<ScoreDistribution value="3.0" recordCount="0"/>
							<ScoreDistribution value="4.0" recordCount="0"/>
							<ScoreDistribution value="5.0" recordCount="0"/>
							<ScoreDistribution value="6.0" recordCount="0"/>
							<ScoreDistribution value="7.0" recordCount="0"/>
							<ScoreDistribution value="8.0" recordCount="0"/>
							<ScoreDistribution value="9.0" recordCount="160"/>
						</Node>
					</Node>
				</TreeModel>
			</Segment>
			<Segment id="9">
				<True/>
				<TreeModel functionName="classification" missingValueStrategy="nullPrediction">
					<MiningSchema>
						<MiningField name="double(x10)"/>
						<MiningField name="double(x12)"/>
						<MiningField name="double(x7)"/>
						<MiningField name="double(x8)"/>
						<MiningField name="double(x9)"/>
						<MiningField name="double(x1)"/>
						<MiningField name="double(x5)"/>
						<MiningField name="double(x3)"/>
					</MiningSchema>
					<Node>
						<True/>
						<Node>
							<SimplePredicate field="double(x9)" operator="lessOrEqual" value="0.006940854713320732"/>
							<Node>
								<SimplePredicate field="double(x7)" operator="lessOrEqual" value="0.2618751525878906"/>
								<Node score="5.0" recordCount="9">
									<SimplePredicate field="double(x10)" operator="lessOrEqual" value="0.11968451738357544"/>
									<ScoreDistribution value="0.0" recordCount="0"/>
									<ScoreDistribution value="1.0" recordCount="0"/>
									<ScoreDistribution value="2.0" recordCount="0"/>
									<ScoreDistribution value="3.0" recordCount="0"/>
									<ScoreDistribution value="4.0" recordCount="0"/>
									<ScoreDistribution value="5.0" recordCount="9"/>
									<ScoreDistribution value="6.0" recordCount="0"/>
									<ScoreDistribution value="7.0" recordCount="0"/>
									<ScoreDistribution value="8.0" recordCount="0"/>
									<ScoreDistribution value="9.0" recordCount="0"/>
								</Node>
								<Node score="9.0" recordCount="113">
									<True/>
									<ScoreDistribution value="0.0" recordCount="0"/>
									<ScoreDistribution value="1.0" recordCount="0"/>
									<ScoreDistribution value="2.0" recordCount="0"/>
									<ScoreDistribution value="3.0" recordCount="0"/>
									<ScoreDistribution value="4.0" recordCount="0"/>
									<ScoreDistribution value="5.0" recordCount="0"/>
									<ScoreDistribution value="6.0" recordCount="0"/>
									<ScoreDistribution value="7.0" recordCount="0"/>
									<ScoreDistribution value="8.0" recordCount="0"/>
									<ScoreDistribution value="9.0" recordCount="113"/>
								</Node>
							</Node>
							<Node score="8.0" recordCount="13">
								<SimplePredicate field="double(x9)" operator="lessOrEqual" value="-2.3737701121717691E-4"/>
								<ScoreDistribution value="0.0" recordCount="0"/>
								<ScoreDistribution value="1.0" recordCount="0"/>
								<ScoreDistribution value="2.0" recordCount="0"/>
								<ScoreDistribution value="3.0" recordCount="0"/>
								<ScoreDistribution value="4.0" recordCount="0"/>
								<ScoreDistribution value="5.0" recordCount="0"/>
								<ScoreDistribution value="6.0" recordCount="0"/>
								<ScoreDistribution value="7.0" recordCount="0"/>
								<ScoreDistribution value="8.0" recordCount="13"/>
								<ScoreDistribution value="9.0" recordCount="0"/>
							</Node>
							<Node score="5.0" recordCount="180">
								<SimplePredicate field="double(x12)" operator="lessOrEqual" value="2.7059662342071533"/>
								<ScoreDistribution value="0.0" recordCount="0"/>
								<ScoreDistribution value="1.0" recordCount="0"/>
								<ScoreDistribution value="2.0" recordCount="0"/>
								<ScoreDistribution value="3.0" recordCount="0"/>
								<ScoreDistribution value="4.0" recordCount="0"/>
								<ScoreDistribution value="5.0" recordCount="165"/>
								<ScoreDistribution value="6.0" recordCount="11"/>
								<ScoreDistribution value="7.0" recordCount="0"/>
								<ScoreDistribution value="8.0" recordCount="4"/>
								<ScoreDistribution value="9.0" recordCount="0"/>
							</Node>
							<Node score="9.0" recordCount="30">
								<True/>
								<ScoreDistribution value="0.0" recordCount="0"/>
								<ScoreDistribution value="1.0" recordCount="0"/>
								<ScoreDistribution value="2.0" recordCount="0"/>
								<ScoreDistribution value="3.0" recordCount="0"/>
								<ScoreDistribution value="4.0" recordCount="0"/>
								<ScoreDistribution value="5.0" recordCount="0"/>
								<ScoreDistribution value="6.0" recordCount="0"/>
								<ScoreDistribution value="7.0" recordCount="0"/>
								<ScoreDistribution value="8.0" recordCount="0"/>
								<ScoreDistribution value="9.0" recordCount="30"/>
							</Node>
						</Node>
						<Node>
							<SimplePredicate field="double(x3)" operator="lessOrEqual" value="0.22844333946704865"/>
							<Node score="8.0" recordCount="5">
								<SimplePredicate field="double(x12)" operator="lessOrEqual" value="2.1694836020469666"/>
								<ScoreDistribution value="0.0" recordCount="0"/>
								<ScoreDistribution value="1.0" recordCount="0"/>
								<ScoreDistribution value="2.0" recordCount="0"/>
								<ScoreDistribution value="3.0" recordCount="0"/>
								<ScoreDistribution value="4.0" recordCount="0"/>
								<ScoreDistribution value="5.0" recordCount="0"/>
								<ScoreDistribution value="6.0" recordCount="0"/>
								<ScoreDistribution value="7.0" recordCount="0"/>
								<ScoreDistribution value="8.0" recordCount="5"/>
								<ScoreDistribution value="9.0" recordCount="0"/>
							</Node>
							<Node score="3.0" recordCount="175">
								<True/>
								<ScoreDistribution value="0.0" recordCount="0"/>
								<ScoreDistribution value="1.0" recordCount="0"/>
								<ScoreDistribution value="2.0" recordCount="0"/>
								<ScoreDistribution value="3.0" recordCount="175"/>
								<ScoreDistribution value="4.0" recordCount="0"/>
								<ScoreDistribution value="5.0" recordCount="0"/>
								<ScoreDistribution value="6.0" recordCount="0"/>
								<ScoreDistribution value="7.0" recordCount="0"/>
								<ScoreDistribution value="8.0" recordCount="0"/>
								<ScoreDistribution value="9.0" recordCount="0"/>
							</Node>
						</Node>
						<Node>
							<SimplePredicate field="double(x1)" operator="lessOrEqual" value="9.342381954193115"/>
							<Node score="6.0" recordCount="574">
								<SimplePredicate field="double(x5)" operator="lessOrEqual" value="5.844243288040161"/>
								<ScoreDistribution value="0.0" recordCount="152"/>
								<ScoreDistribution value="1.0" recordCount="5"/>
								<ScoreDistribution value="2.0" recordCount="143"/>
								<ScoreDistribution value="3.0" recordCount="0"/>
								<ScoreDistribution value="4.0" recordCount="0"/>
								<ScoreDistribution value="5.0" recordCount="0"/>
								<ScoreDistribution value="6.0" recordCount="155"/>
								<ScoreDistribution value="7.0" recordCount="1"/>
								<ScoreDistribution value="8.0" recordCount="118"/>
								<ScoreDistribution value="9.0" recordCount="0"/>
							</Node>
							<Node score="1.0" recordCount="341">
								<True/>
								<ScoreDistribution value="0.0" recordCount="0"/>
								<ScoreDistribution value="1.0" recordCount="172"/>
								<ScoreDistribution value="2.0" recordCount="0"/>
								<ScoreDistribution value="3.0" recordCount="0"/>
								<ScoreDistribution value="4.0" recordCount="0"/>
								<ScoreDistribution value="5.0" recordCount="0"/>
								<ScoreDistribution value="6.0" recordCount="0"/>
								<ScoreDistribution value="7.0" recordCount="156"/>
								<ScoreDistribution value="8.0" recordCount="13"/>
								<ScoreDistribution value="9.0" recordCount="0"/>
							</Node>
						</Node>
						<Node score="7.0" recordCount="2">
							<SimplePredicate field="double(x8)" operator="lessOrEqual" value="0.06850689463317394"/>
							<ScoreDistribution value="0.0" recordCount="0"/>
							<ScoreDistribution value="1.0" recordCount="0"/>
							<ScoreDistribution value="2.0" recordCount="0"/>
							<ScoreDistribution value="3.0" recordCount="0"/>
							<ScoreDistribution value="4.0" recordCount="0"/>
							<ScoreDistribution value="5.0" recordCount="0"/>
							<ScoreDistribution value="6.0" recordCount="0"/>
							<ScoreDistribution value="7.0" recordCount="1"/>
							<ScoreDistribution value="8.0" recordCount="0"/>
							<ScoreDistribution value="9.0" recordCount="1"/>
						</Node>
						<Node score="4.0" recordCount="189">
							<True/>
							<ScoreDistribution value="0.0" recordCount="0"/>
							<ScoreDistribution value="1.0" recordCount="0"/>
							<ScoreDistribution value="2.0" recordCount="0"/>
							<ScoreDistribution value="3.0" recordCount="0"/>
							<ScoreDistribution value="4.0" recordCount="189"/>
							<ScoreDistribution value="5.0" recordCount="0"/>
							<ScoreDistribution value="6.0" recordCount="0"/>
							<ScoreDistribution value="7.0" recordCount="0"/>
							<ScoreDistribution value="8.0" recordCount="0"/>
							<ScoreDistribution value="9.0" recordCount="0"/>
						</Node>
					</Node>
				</TreeModel>
			</Segment>
			<Segment id="10">
				<True/>
				<TreeModel functionName="classification" missingValueStrategy="nullPrediction">
					<MiningSchema>
						<MiningField name="double(x13)"/>
						<MiningField name="double(x10)"/>
						<MiningField name="double(x8)"/>
						<MiningField name="double(x1)"/>
						<MiningField name="double(x5)"/>
					</MiningSchema>
					<Node>
						<True/>
						<Node>
							<SimplePredicate field="double(x1)" operator="lessOrEqual" value="9.152080535888672"/>
							<Node>
								<SimplePredicate field="double(x13)" operator="lessOrEqual" value="0.6027455031871796"/>
								<Node score="0.0" recordCount="171">
									<SimplePredicate field="double(x8)" operator="lessOrEqual" value="0.019719150848686695"/>
									<ScoreDistribution value="0.0" recordCount="171"/>
									<ScoreDistribution value="1.0" recordCount="0"/>
									<ScoreDistribution value="2.0" recordCount="0"/>
									<ScoreDistribution value="3.0" recordCount="0"/>
									<ScoreDistribution value="4.0" recordCount="0"/>
									<ScoreDistribution value="5.0" recordCount="0"/>
									<ScoreDistribution value="6.0" recordCount="0"/>
									<ScoreDistribution value="7.0" recordCount="0"/>
									<ScoreDistribution value="8.0" recordCount="0"/>
									<ScoreDistribution value="9.0" recordCount="0"/>
								</Node>
								<Node score="8.0" recordCount="782">
									<SimplePredicate field="double(x13)" operator="lessOrEqual" value="0.396650105714798"/>
									<ScoreDistribution value="0.0" recordCount="0"/>
									<ScoreDistribution value="1.0" recordCount="149"/>
									<ScoreDistribution value="2.0" recordCount="159"/>
									<ScoreDistribution value="3.0" recordCount="0"/>
									<ScoreDistribution value="4.0" recordCount="0"/>
									<ScoreDistribution value="5.0" recordCount="158"/>
									<ScoreDistribution value="6.0" recordCount="142"/>
									<ScoreDistribution value="7.0" recordCount="0"/>
									<ScoreDistribution value="8.0" recordCount="174"/>
									<ScoreDistribution value="9.0" recordCount="0"/>
								</Node>
								<Node score="7.0" recordCount="158">
									<True/>
									<ScoreDistribution value="0.0" recordCount="0"/>
									<ScoreDistribution value="1.0" recordCount="0"/>
									<ScoreDistribution value="2.0" recordCount="0"/>
									<ScoreDistribution value="3.0" recordCount="0"/>
									<ScoreDistribution value="4.0" recordCount="0"/>
									<ScoreDistribution value="5.0" recordCount="0"/>
									<ScoreDistribution value="6.0" recordCount="0"/>
									<ScoreDistribution value="7.0" recordCount="155"/>
									<ScoreDistribution value="8.0" recordCount="0"/>
									<ScoreDistribution value="9.0" recordCount="3"/>
								</Node>
							</Node>
							<Node score="3.0" recordCount="175">
								<True/>
								<ScoreDistribution value="0.0" recordCount="0"/>
								<ScoreDistribution value="1.0" recordCount="0"/>
								<ScoreDistribution value="2.0" recordCount="0"/>
								<ScoreDistribution value="3.0" recordCount="175"/>
								<ScoreDistribution value="4.0" recordCount="0"/>
								<ScoreDistribution value="5.0" recordCount="0"/>
								<ScoreDistribution value="6.0" recordCount="0"/>
								<ScoreDistribution value="7.0" recordCount="0"/>
								<ScoreDistribution value="8.0" recordCount="0"/>
								<ScoreDistribution value="9.0" recordCount="0"/>
							</Node>
						</Node>
						<Node>
							<SimplePredicate field="double(x10)" operator="lessOrEqual" value="0.13860942050814629"/>
							<Node score="5.0" recordCount="10">
								<SimplePredicate field="double(x8)" operator="lessOrEqual" value="0.06961211003363132"/>
								<ScoreDistribution value="0.0" recordCount="0"/>
								<ScoreDistribution value="1.0" recordCount="0"/>
								<ScoreDistribution value="2.0" recordCount="0"/>
								<ScoreDistribution value="3.0" recordCount="0"/>
								<ScoreDistribution value="4.0" recordCount="0"/>
								<ScoreDistribution value="5.0" recordCount="10"/>
								<ScoreDistribution value="6.0" recordCount="0"/>
								<ScoreDistribution value="7.0" recordCount="0"/>
								<ScoreDistribution value="8.0" recordCount="0"/>
								<ScoreDistribution value="9.0" recordCount="0"/>
							</Node>
							<Node score="4.0" recordCount="170">
								<True/>
								<ScoreDistribution value="0.0" recordCount="0"/>
								<ScoreDistribution value="1.0" recordCount="0"/>
								<ScoreDistribution value="2.0" recordCount="0"/>
								<ScoreDistribution value="3.0" recordCount="0"/>
								<ScoreDistribution value="4.0" recordCount="170"/>
								<ScoreDistribution value="5.0" recordCount="0"/>
								<ScoreDistribution value="6.0" recordCount="0"/>
								<ScoreDistribution value="7.0" recordCount="0"/>
								<ScoreDistribution value="8.0" recordCount="0"/>
								<ScoreDistribution value="9.0" recordCount="0"/>
							</Node>
						</Node>
						<Node score="7.0" recordCount="3">
							<SimplePredicate field="double(x5)" operator="lessOrEqual" value="11.431665420532227"/>
							<ScoreDistribution value="0.0" recordCount="0"/>
							<ScoreDistribution value="1.0" recordCount="0"/>
							<ScoreDistribution value="2.0" recordCount="0"/>
							<ScoreDistribution value="3.0" recordCount="0"/>
							<ScoreDistribution value="4.0" recordCount="0"/>
							<ScoreDistribution value="5.0" recordCount="0"/>
							<ScoreDistribution value="6.0" recordCount="0"/>
							<ScoreDistribution value="7.0" recordCount="3"/>
							<ScoreDistribution value="8.0" recordCount="0"/>
							<ScoreDistribution value="9.0" recordCount="0"/>
						</Node>
						<Node score="9.0" recordCount="162">
							<True/>
							<ScoreDistribution value="0.0" recordCount="0"/>
							<ScoreDistribution value="1.0" recordCount="0"/>
							<ScoreDistribution value="2.0" recordCount="0"/>
							<ScoreDistribution value="3.0" recordCount="0"/>
							<ScoreDistribution value="4.0" recordCount="0"/>
							<ScoreDistribution value="5.0" recordCount="0"/>
							<ScoreDistribution value="6.0" recordCount="0"/>
							<ScoreDistribution value="7.0" recordCount="0"/>
							<ScoreDistribution value="8.0" recordCount="0"/>
							<ScoreDistribution value="9.0" recordCount="162"/>
						</Node>
					</Node>
				</TreeModel>
			</Segment>
			<Segment id="11">
				<True/>
				<TreeModel functionName="classification" missingValueStrategy="nullPrediction">
					<MiningSchema>
						<MiningField name="double(x10)"/>
						<MiningField name="double(x8)"/>
						<MiningField name="double(x9)"/>
						<MiningField name="double(x1)"/>
						<MiningField name="double(x3)"/>
						<MiningField name="double(x4)"/>
					</MiningSchema>
					<Node>
						<True/>
						<Node>
							<SimplePredicate field="double(x10)" operator="lessOrEqual" value="0.13442988321185112"/>
							<Node>
								<SimplePredicate field="double(x9)" operator="lessOrEqual" value="0.006344963796436787"/>
								<Node>
									<SimplePredicate field="double(x9)" operator="lessOrEqual" value="0.0033944217721000314"/>
									<Node score="6.0" recordCount="3">
										<SimplePredicate field="double(x10)" operator="lessOrEqual" value="0.011577080935239792"/>
										<ScoreDistribution value="0.0" recordCount="0"/>
										<ScoreDistribution value="1.0" recordCount="0"/>
										<ScoreDistribution value="2.0" recordCount="0"/>
										<ScoreDistribution value="3.0" recordCount="0"/>
										<ScoreDistribution value="4.0" recordCount="0"/>
										<ScoreDistribution value="5.0" recordCount="0"/>
										<ScoreDistribution value="6.0" recordCount="2"/>
										<ScoreDistribution value="7.0" recordCount="0"/>
										<ScoreDistribution value="8.0" recordCount="1"/>
										<ScoreDistribution value="9.0" recordCount="0"/>
									</Node>
									<Node score="8.0" recordCount="5">
										<True/>
										<ScoreDistribution value="0.0" recordCount="0"/>
										<ScoreDistribution value="1.0" recordCount="0"/>
										<ScoreDistribution value="2.0" recordCount="0"/>
										<ScoreDistribution value="3.0" recordCount="0"/>
										<ScoreDistribution value="4.0" recordCount="0"/>
										<ScoreDistribution value="5.0" recordCount="0"/>
										<ScoreDistribution value="6.0" recordCount="0"/>
										<ScoreDistribution value="7.0" recordCount="0"/>
										<ScoreDistribution value="8.0" recordCount="5"/>
										<ScoreDistribution value="9.0" recordCount="0"/>
									</Node>
								</Node>
								<Node score="5.0" recordCount="14">
									<SimplePredicate field="double(x1)" operator="lessOrEqual" value="-0.012821271317079663"/>
									<ScoreDistribution value="0.0" recordCount="0"/>
									<ScoreDistribution value="1.0" recordCount="0"/>
									<ScoreDistribution value="2.0" recordCount="0"/>
									<ScoreDistribution value="3.0" recordCount="0"/>
									<ScoreDistribution value="4.0" recordCount="0"/>
									<ScoreDistribution value="5.0" recordCount="8"/>
									<ScoreDistribution value="6.0" recordCount="6"/>
									<ScoreDistribution value="7.0" recordCount="0"/>
									<ScoreDistribution value="8.0" recordCount="0"/>
									<ScoreDistribution value="9.0" recordCount="0"/>
								</Node>
								<Node score="5.0" recordCount="161">
									<True/>
									<ScoreDistribution value="0.0" recordCount="0"/>
									<ScoreDistribution value="1.0" recordCount="0"/>
									<ScoreDistribution value="2.0" recordCount="0"/>
									<ScoreDistribution value="3.0" recordCount="0"/>
									<ScoreDistribution value="4.0" recordCount="0"/>
									<ScoreDistribution value="5.0" recordCount="157"/>
									<ScoreDistribution value="6.0" recordCount="3"/>
									<ScoreDistribution value="7.0" recordCount="0"/>
									<ScoreDistribution value="8.0" recordCount="1"/>
									<ScoreDistribution value="9.0" recordCount="0"/>
								</Node>
							</Node>
							<Node>
								<SimplePredicate field="double(x3)" operator="lessOrEqual" value="0.5960922539234161"/>
								<Node score="2.0" recordCount="169">
									<SimplePredicate field="double(x8)" operator="lessOrEqual" value="0.06336156837642193"/>
									<ScoreDistribution value="0.0" recordCount="0"/>
									<ScoreDistribution value="1.0" recordCount="0"/>
									<ScoreDistribution value="2.0" recordCount="167"/>
									<ScoreDistribution value="3.0" recordCount="0"/>
									<ScoreDistribution value="4.0" recordCount="0"/>
									<ScoreDistribution value="5.0" recordCount="0"/>
									<ScoreDistribution value="6.0" recordCount="0"/>
									<ScoreDistribution value="7.0" recordCount="0"/>
									<ScoreDistribution value="8.0" recordCount="2"/>
									<ScoreDistribution value="9.0" recordCount="0"/>
								</Node>
								<Node score="1.0" recordCount="616">
									<True/>
									<ScoreDistribution value="0.0" recordCount="0"/>
									<ScoreDistribution value="1.0" recordCount="170"/>
									<ScoreDistribution value="2.0" recordCount="0"/>
									<ScoreDistribution value="3.0" recordCount="0"/>
									<ScoreDistribution value="4.0" recordCount="140"/>
									<ScoreDistribution value="5.0" recordCount="0"/>
									<ScoreDistribution value="6.0" recordCount="167"/>
									<ScoreDistribution value="7.0" recordCount="0"/>
									<ScoreDistribution value="8.0" recordCount="139"/>
									<ScoreDistribution value="9.0" recordCount="0"/>
								</Node>
							</Node>
							<Node score="0.0" recordCount="163">
								<True/>
								<ScoreDistribution value="0.0" recordCount="163"/>
								<ScoreDistribution value="1.0" recordCount="0"/>
								<ScoreDistribution value="2.0" recordCount="0"/>
								<ScoreDistribution value="3.0" recordCount="0"/>
								<ScoreDistribution value="4.0" recordCount="0"/>
								<ScoreDistribution value="5.0" recordCount="0"/>
								<ScoreDistribution value="6.0" recordCount="0"/>
								<ScoreDistribution value="7.0" recordCount="0"/>
								<ScoreDistribution value="8.0" recordCount="0"/>
								<ScoreDistribution value="9.0" recordCount="0"/>
							</Node>
						</Node>
						<Node score="3.0" recordCount="181">
							<SimplePredicate field="double(x3)" operator="lessOrEqual" value="0.2542393431067467"/>
							<ScoreDistribution value="0.0" recordCount="0"/>
							<ScoreDistribution value="1.0" recordCount="0"/>
							<ScoreDistribution value="2.0" recordCount="0"/>
							<ScoreDistribution value="3.0" recordCount="181"/>
							<ScoreDistribution value="4.0" recordCount="0"/>
							<ScoreDistribution value="5.0" recordCount="0"/>
							<ScoreDistribution value="6.0" recordCount="0"/>
							<ScoreDistribution value="7.0" recordCount="0"/>
							<ScoreDistribution value="8.0" recordCount="0"/>
							<ScoreDistribution value="9.0" recordCount="0"/>
						</Node>
						<Node score="7.0" recordCount="158">
							<SimplePredicate field="double(x3)" operator="lessOrEqual" value="0.37487366795539856"/>
							<ScoreDistribution value="0.0" recordCount="0"/>
							<ScoreDistribution value="1.0" recordCount="0"/>
							<ScoreDistribution value="2.0" recordCount="0"/>
							<ScoreDistribution value="3.0" recordCount="0"/>
							<ScoreDistribution value="4.0" recordCount="0"/>
							<ScoreDistribution value="5.0" recordCount="0"/>
							<ScoreDistribution value="6.0" recordCount="0"/>
							<ScoreDistribution value="7.0" recordCount="158"/>
							<ScoreDistribution value="8.0" recordCount="0"/>
							<ScoreDistribution value="9.0" recordCount="0"/>
						</Node>
						<Node score="7.0" recordCount="2">
							<SimplePredicate field="double(x4)" operator="lessOrEqual" value="6.080686092376709"/>
							<ScoreDistribution value="0.0" recordCount="0"/>
							<ScoreDistribution value="1.0" recordCount="0"/>
							<ScoreDistribution value="2.0" recordCount="0"/>
							<ScoreDistribution value="3.0" recordCount="0"/>
							<ScoreDistribution value="4.0" recordCount="0"/>
							<ScoreDistribution value="5.0" recordCount="0"/>
							<ScoreDistribution value="6.0" recordCount="0"/>
							<ScoreDistribution value="7.0" recordCount="1"/>
							<ScoreDistribution value="8.0" recordCount="0"/>
							<ScoreDistribution value="9.0" recordCount="1"/>
						</Node>
						<Node score="9.0" recordCount="159">
							<True/>
							<ScoreDistribution value="0.0" recordCount="0"/>
							<ScoreDistribution value="1.0" recordCount="0"/>
							<ScoreDistribution value="2.0" recordCount="0"/>
							<ScoreDistribution value="3.0" recordCount="0"/>
							<ScoreDistribution value="4.0" recordCount="0"/>
							<ScoreDistribution value="5.0" recordCount="0"/>
							<ScoreDistribution value="6.0" recordCount="0"/>
							<ScoreDistribution value="7.0" recordCount="0"/>
							<ScoreDistribution value="8.0" recordCount="0"/>
							<ScoreDistribution value="9.0" recordCount="159"/>
						</Node>
					</Node>
				</TreeModel>
			</Segment>
			<Segment id="12">
				<True/>
				<TreeModel functionName="classification" missingValueStrategy="nullPrediction">
					<MiningSchema>
						<MiningField name="double(x10)"/>
						<MiningField name="double(x12)"/>
						<MiningField name="double(x7)"/>
						<MiningField name="double(x8)"/>
						<MiningField name="double(x9)"/>
						<MiningField name="double(x3)"/>
						<MiningField name="double(x6)"/>
						<MiningField name="double(x4)"/>
					</MiningSchema>
					<Node>
						<True/>
						<Node>
							<SimplePredicate field="double(x10)" operator="lessOrEqual" value="0.006302133202552795"/>
							<Node>
								<SimplePredicate field="double(x7)" operator="lessOrEqual" value="0.40640172362327576"/>
								<Node score="0.0" recordCount="3">
									<SimplePredicate field="double(x12)" operator="lessOrEqual" value="0.2388938143849373"/>
									<ScoreDistribution value="0.0" recordCount="3"/>
									<ScoreDistribution value="1.0" recordCount="0"/>
									<ScoreDistribution value="2.0" recordCount="0"/>
									<ScoreDistribution value="3.0" recordCount="0"/>
									<ScoreDistribution value="4.0" recordCount="0"/>
									<ScoreDistribution value="5.0" recordCount="0"/>
									<ScoreDistribution value="6.0" recordCount="0"/>
									<ScoreDistribution value="7.0" recordCount="0"/>
									<ScoreDistribution value="8.0" recordCount="0"/>
									<ScoreDistribution value="9.0" recordCount="0"/>
								</Node>
								<Node score="5.0" recordCount="4">
									<True/>
									<ScoreDistribution value="0.0" recordCount="0"/>
									<ScoreDistribution value="1.0" recordCount="0"/>
									<ScoreDistribution value="2.0" recordCount="0"/>
									<ScoreDistribution value="3.0" recordCount="0"/>
									<ScoreDistribution value="4.0" recordCount="0"/>
									<ScoreDistribution value="5.0" recordCount="4"/>
									<ScoreDistribution value="6.0" recordCount="0"/>
									<ScoreDistribution value="7.0" recordCount="0"/>
									<ScoreDistribution value="8.0" recordCount="0"/>
									<ScoreDistribution value="9.0" recordCount="0"/>
								</Node>
							</Node>
							<Node score="0.0" recordCount="171">
								<True/>
								<ScoreDistribution value="0.0" recordCount="171"/>
								<ScoreDistribution value="1.0" recordCount="0"/>
								<ScoreDistribution value="2.0" recordCount="0"/>
								<ScoreDistribution value="3.0" recordCount="0"/>
								<ScoreDistribution value="4.0" recordCount="0"/>
								<ScoreDistribution value="5.0" recordCount="0"/>
								<ScoreDistribution value="6.0" recordCount="0"/>
								<ScoreDistribution value="7.0" recordCount="0"/>
								<ScoreDistribution value="8.0" recordCount="0"/>
								<ScoreDistribution value="9.0" recordCount="0"/>
							</Node>
						</Node>
						<Node>
							<SimplePredicate field="double(x3)" operator="lessOrEqual" value="0.22844333946704865"/>
							<Node>
								<SimplePredicate field="double(x4)" operator="lessOrEqual" value="5.891799688339233"/>
								<Node score="8.0" recordCount="3">
									<SimplePredicate field="double(x6)" operator="lessOrEqual" value="4.145003318786621"/>
									<ScoreDistribution value="0.0" recordCount="0"/>
									<ScoreDistribution value="1.0" recordCount="0"/>
									<ScoreDistribution value="2.0" recordCount="0"/>
									<ScoreDistribution value="3.0" recordCount="1"/>
									<ScoreDistribution value="4.0" recordCount="0"/>
									<ScoreDistribution value="5.0" recordCount="0"/>
									<ScoreDistribution value="6.0" recordCount="0"/>
									<ScoreDistribution value="7.0" recordCount="0"/>
									<ScoreDistribution value="8.0" recordCount="2"/>
									<ScoreDistribution value="9.0" recordCount="0"/>
								</Node>
								<Node score="3.0" recordCount="186">
									<True/>
									<ScoreDistribution value="0.0" recordCount="0"/>
									<ScoreDistribution value="1.0" recordCount="0"/>
									<ScoreDistribution value="2.0" recordCount="0"/>
									<ScoreDistribution value="3.0" recordCount="186"/>
									<ScoreDistribution value="4.0" recordCount="0"/>
									<ScoreDistribution value="5.0" recordCount="0"/>
									<ScoreDistribution value="6.0" recordCount="0"/>
									<ScoreDistribution value="7.0" recordCount="0"/>
									<ScoreDistribution value="8.0" recordCount="0"/>
									<ScoreDistribution value="9.0" recordCount="0"/>
								</Node>
							</Node>
							<Node score="8.0" recordCount="3">
								<True/>
								<ScoreDistribution value="0.0" recordCount="0"/>
								<ScoreDistribution value="1.0" recordCount="0"/>
								<ScoreDistribution value="2.0" recordCount="0"/>
								<ScoreDistribution value="3.0" recordCount="0"/>
								<ScoreDistribution value="4.0" recordCount="0"/>
								<ScoreDistribution value="5.0" recordCount="0"/>
								<ScoreDistribution value="6.0" recordCount="0"/>
								<ScoreDistribution value="7.0" recordCount="0"/>
								<ScoreDistribution value="8.0" recordCount="3"/>
								<ScoreDistribution value="9.0" recordCount="0"/>
							</Node>
						</Node>
						<Node>
							<SimplePredicate field="double(x8)" operator="lessOrEqual" value="0.08145473897457123"/>
							<Node score="9.0" recordCount="328">
								<SimplePredicate field="double(x9)" operator="lessOrEqual" value="0.008316671010106802"/>
								<ScoreDistribution value="0.0" recordCount="0"/>
								<ScoreDistribution value="1.0" recordCount="0"/>
								<ScoreDistribution value="2.0" recordCount="0"/>
								<ScoreDistribution value="3.0" recordCount="0"/>
								<ScoreDistribution value="4.0" recordCount="0"/>
								<ScoreDistribution value="5.0" recordCount="163"/>
								<ScoreDistribution value="6.0" recordCount="0"/>
								<ScoreDistribution value="7.0" recordCount="0"/>
								<ScoreDistribution value="8.0" recordCount="1"/>
								<ScoreDistribution value="9.0" recordCount="164"/>
							</Node>
							<Node score="2.0" recordCount="324">
								<True/>
								<ScoreDistribution value="0.0" recordCount="0"/>
								<ScoreDistribution value="1.0" recordCount="0"/>
								<ScoreDistribution value="2.0" recordCount="157"/>
								<ScoreDistribution value="3.0" recordCount="0"/>
								<ScoreDistribution value="4.0" recordCount="2"/>
								<ScoreDistribution value="5.0" recordCount="0"/>
								<ScoreDistribution value="6.0" recordCount="0"/>
								<ScoreDistribution value="7.0" recordCount="151"/>
								<ScoreDistribution value="8.0" recordCount="14"/>
								<ScoreDistribution value="9.0" recordCount="0"/>
							</Node>
						</Node>
						<Node score="6.0" recordCount="165">
							<SimplePredicate field="double(x10)" operator="lessOrEqual" value="0.011656059417873621"/>
							<ScoreDistribution value="0.0" recordCount="0"/>
							<ScoreDistribution value="1.0" recordCount="0"/>
							<ScoreDistribution value="2.0" recordCount="0"/>
							<ScoreDistribution value="3.0" recordCount="0"/>
							<ScoreDistribution value="4.0" recordCount="0"/>
							<ScoreDistribution value="5.0" recordCount="2"/>
